{"learner":{"attributes":{"scikit_learn":"{\"_estimator_type\": \"classifier\"}"},"feature_names":["hour","dow","is_planned","priority_encoded","loc_density","concurrent","event_cause"],"feature_types":["int","int","int","int","float","int","c"],"gradient_booster":{"model":{"cats":{"enc":[{"offsets":[],"values":[]},{"offsets":[],"values":[]},{"offsets":[],"values":[]},{"offsets":[],"values":[]},{"offsets":[],"values":[]},{"offsets":[],"values":[]},{"offsets":[0,8,18,30,36,56,62,71,81,88,100,115,124,133,150,162,175],"values":[97,99,99,105,100,101,110,116,99,111,110,103,101,115,116,105,111,110,99,111,110,115,116,114,117,99,116,105,111,110,100,101,98,114,105,115,102,111,103,32,47,32,108,111,119,32,118,105,115,105,98,105,108,105,116,121,111,116,104,101,114,115,112,111,116,95,104,111,108,101,115,112,114,111,99,101,115,115,105,111,110,112,114,111,116,101,115,116,112,117,98,108,105,99,95,101,118,101,110,116,114,111,97,100,95,99,111,110,100,105,116,105,111,110,115,116,101,115,116,95,100,101,109,111,116,114,101,101,95,102,97,108,108,118,101,104,105,99,108,101,95,98,114,101,97,107,100,111,119,110,118,105,112,95,109,111,118,101,109,101,110,116,119,97,116,101,114,95,108,111,103,103,105,110,103]}],"feature_segments":[0,0,0,0,0,0,0,16],"sorted_idx":[0,1,2,3,4,5,6,7,8,9,10,11,12,13,14,15]},"gbtree_model_param":{"num_parallel_tree":"1","num_trees":"300"},"iteration_indptr":[0,1,2,3,4,5,6,7,8,9,10,11,12,13,14,15,16,17,18,19,20,21,22,23,24,25,26,27,28,29,30,31,32,33,34,35,36,37,38,39,40,41,42,43,44,45,46,47,48,49,50,51,52,53,54,55,56,57,58,59,60,61,62,63,64,65,66,67,68,69,70,71,72,73,74,75,76,77,78,79,80,81,82,83,84,85,86,87,88,89,90,91,92,93,94,95,96,97,98,99,100,101,102,103,104,105,106,107,108,109,110,111,112,113,114,115,116,117,118,119,120,121,122,123,124,125,126,127,128,129,130,131,132,133,134,135,136,137,138,139,140,141,142,143,144,145,146,147,148,149,150,151,152,153,154,155,156,157,158,159,160,161,162,163,164,165,166,167,168,169,170,171,172,173,174,175,176,177,178,179,180,181,182,183,184,185,186,187,188,189,190,191,192,193,194,195,196,197,198,199,200,201,202,203,204,205,206,207,208,209,210,211,212,213,214,215,216,217,218,219,220,221,222,223,224,225,226,227,228,229,230,231,232,233,234,235,236,237,238,239,240,241,242,243,244,245,246,247,248,249,250,251,252,253,254,255,256,257,258,259,260,261,262,263,264,265,266,267,268,269,270,271,272,273,274,275,276,277,278,279,280,281,282,283,284,285,286,287,288,289,290,291,292,293,294,295,296,297,298,299,300],"tree_info":[0,0,0,0,0,0,0,0,0,0,0,0,0,0,0,0,0,0,0,0,0,0,0,0,0,0,0,0,0,0,0,0,0,0,0,0,0,0,0,0,0,0,0,0,0,0,0,0,0,0,0,0,0,0,0,0,0,0,0,0,0,0,0,0,0,0,0,0,0,0,0,0,0,0,0,0,0,0,0,0,0,0,0,0,0,0,0,0,0,0,0,0,0,0,0,0,0,0,0,0,0,0,0,0,0,0,0,0,0,0,0,0,0,0,0,0,0,0,0,0,0,0,0,0,0,0,0,0,0,0,0,0,0,0,0,0,0,0,0,0,0,0,0,0,0,0,0,0,0,0,0,0,0,0,0,0,0,0,0,0,0,0,0,0,0,0,0,0,0,0,0,0,0,0,0,0,0,0,0,0,0,0,0,0,0,0,0,0,0,0,0,0,0,0,0,0,0,0,0,0,0,0,0,0,0,0,0,0,0,0,0,0,0,0,0,0,0,0,0,0,0,0,0,0,0,0,0,0,0,0,0,0,0,0,0,0,0,0,0,0,0,0,0,0,0,0,0,0,0,0,0,0,0,0,0,0,0,0,0,0,0,0,0,0,0,0,0,0,0,0,0,0,0,0,0,0,0,0,0,0,0,0,0,0,0,0,0,0,0,0,0,0,0,0,0,0,0,0,0,0],"trees":[{"base_weights":[-5.1879194E-3,-9.646956E-1,9.630852E-2,-1.4041357E0,-5.1883006E-1,-1.0285368E-1,-1.310537E0,-6.430671E-1,-2.4466652E-1,-7.4403815E-2,-5.8958765E-2,-7.856351E-3,-3.39231E-2,-1.8884428E-2,-1.98043E-3],"categories":[],"categories_nodes":[],"categories_segments":[],"categories_sizes":[],"default_left":[0,0,0,0,0,0,0,0,0,0,0,0,0,0,0],"id":0,"left_children":[1,3,-1,5,7,-1,9,11,13,-1,-1,-1,-1,-1,-1],"loss_changes":[4.653667E3,3.2798804E2,0E0,4.8906494E1,2.826184E1,0E0,1.5532593E1,9.758438E0,7.126189E0,0E0,0E0,0E0,0E0,0E0,0E0],"parents":[2147483647,0,0,1,1,3,3,4,4,6,6,7,7,8,8],"right_children":[2,4,-1,6,8,-1,10,12,14,-1,-1,-1,-1,-1,-1],"split_conditions":[1E0,1.83E2,9.630852E-2,2E0,6.07E2,-1.0285368E-1,8E0,2.08E2,1.8E1,-7.4403815E-2,-5.8958765E-2,-7.856351E-3,-3.39231E-2,-1.8884428E-2,-1.98043E-3],"split_indices":[5,4,0,4,4,0,4,4,0,0,0,0,0,0,0],"split_type":[0,0,0,0,0,0,0,0,0,0,0,0,0,0,0],"sum_hessian":[2.509213E3,1.6767141E3,8.324988E2,8.433593E2,8.3335486E2,1.0310801E2,7.402513E2,5.7255597E2,2.6079892E2,3.1040338E2,4.298479E2,3.9241676E1,5.333143E2,1.576735E2,1.0312542E2],"tree_param":{"num_deleted":"0","num_feature":"7","num_nodes":"15","size_leaf_vector":"1"}},{"base_weights":[-1.2149768E-3,-9.1943353E-1,9.205237E-2,-1.3750986E0,-5.310033E-1,-8.2803756E-1,-1.5229577E0,5.6934E-1,-5.9151846E-1,-9.5432304E-2,-2.881386E-2,-8.3881326E-2,-6.771166E-2,4.2232398E-2,-4.7009613E-2,-3.5243735E-2,-1.549481E-2],"categories":[0,1,2,5,7,10,13,0,1,2,3,4,5,6,7,8,9,10,13],"categories_nodes":[3,4],"categories_segments":[0,7],"categories_sizes":[7,12],"default_left":[0,0,0,1,1,0,0,0,0,0,0,0,0,0,0,0,0],"id":1,"left_children":[1,3,-1,5,7,9,11,13,15,-1,-1,-1,-1,-1,-1,-1,-1],"loss_changes":[4.2865137E3,2.9858716E2,0E0,6.1635498E1,6.123358E1,4.4506676E1,1.3671387E1,2.0818794E1,2.7470642E1,0E0,0E0,0E0,0E0,0E0,0E0,0E0,0E0],"parents":[2147483647,0,0,1,1,3,3,4,4,5,5,6,6,7,7,8,8],"right_children":[2,4,-1,6,8,10,12,14,16,-1,-1,-1,-1,-1,-1,-1,-1],"split_conditions":[1E0,1.66E2,9.205237E-2,1E-45,1E-45,2E0,8E0,2.1E1,6.07E2,-9.5432304E-2,-2.881386E-2,-8.3881326E-2,-6.771166E-2,4.2232398E-2,-4.7009613E-2,-3.5243735E-2,-1.549481E-2],"split_indices":[5,4,0,6,6,4,4,0,4,0,0,0,0,0,0,0,0],"split_type":[0,0,0,1,1,0,0,0,0,0,0,0,0,0,0,0,0],"sum_hessian":[2.5319993E3,1.6901149E3,8.418844E2,7.7657715E2,9.135377E2,1.6663776E2,6.099394E2,4.718413E1,8.6635364E2,3.0243793E1,1.3639397E2,3.135589E2,2.963805E2,4.027859E1,6.905539E0,6.166442E2,2.4970938E2],"tree_param":{"num_deleted":"0","num_feature":"7","num_nodes":"17","size_leaf_vector":"1"}},{"base_weights":[1.0749272E-3,-8.7543607E-1,8.834792E-2,-1.2634789E0,-4.7697586E-1,-8.587229E-1,-1.4159056E0,4.258239E-1,-5.4944587E-1,-9.200436E-2,-3.2465424E-2,-8.040614E-2,-6.216268E-2,3.52197E-2,-2.966772E-2,-3.373855E-2,-1.3756736E-2],"categories":[1,2,5,7,8,13,0,1,2,3,4,5,7,8,9,10,13],"categories_nodes":[3,4],"categories_segments":[0,6],"categories_sizes":[6,11],"default_left":[0,0,0,1,1,0,0,0,0,0,0,0,0,0,0,0,0],"id":2,"left_children":[1,3,-1,5,7,9,11,13,15,-1,-1,-1,-1,-1,-1,-1,-1],"loss_changes":[3.8942349E3,2.5937256E2,0E0,5.1300903E1,5.4613647E1,4.718419E1,1.8470703E1,1.8112875E1,2.6279938E1,0E0,0E0,0E0,0E0,0E0,0E0,0E0,0E0],"parents":[2147483647,0,0,1,1,3,3,4,4,5,5,6,6,7,7,8,8],"right_children":[2,4,-1,6,8,10,12,14,16,-1,-1,-1,-1,-1,-1,-1,-1],"split_conditions":[1E0,1.83E2,8.834792E-2,1E-45,1E-45,2E0,8E0,2.1E1,6.07E2,-9.200436E-2,-3.2465424E-2,-8.040614E-2,-6.216268E-2,3.52197E-2,-2.966772E-2,-3.373855E-2,-1.3756736E-2],"split_indices":[5,4,0,6,6,4,4,0,4,0,0,0,0,0,0,0,0],"split_type":[0,0,0,1,1,0,0,0,0,0,0,0,0,0,0,0,0],"sum_hessian":[2.513955E3,1.6803857E3,8.335693E2,8.5022156E2,8.301642E2,2.3440717E2,6.158144E2,6.1325253E1,7.688389E2,3.9854248E1,1.9455292E2,2.8746234E2,3.2835205E2,4.8403954E1,1.2921299E1,5.2673065E2,2.4210828E2],"tree_param":{"num_deleted":"0","num_feature":"7","num_nodes":"17","size_leaf_vector":"1"}},{"base_weights":[1.1299575E-2,-8.1417334E-1,8.5098386E-2,-1.2092476E0,-4.4688514E-1,-9.0011E-2,-1.1220926E0,-5.677871E-1,-1.6980676E-1,-6.338359E-2,-5.014188E-2,-2.5960317E-2,-4.6655696E-2,-1.3029232E-2,3.155545E-3],"categories":[],"categories_nodes":[],"categories_segments":[],"categories_sizes":[],"default_left":[0,0,0,0,0,0,0,0,0,0,0,0,0,0,0],"id":3,"left_children":[1,3,-1,5,7,-1,9,11,13,-1,-1,-1,-1,-1,-1],"loss_changes":[3.4869207E3,2.4306812E2,0E0,3.960901E1,2.910144E1,0E0,1.1003235E1,1.0277603E1,5.645076E0,0E0,0E0,0E0,0E0,0E0,0E0],"parents":[2147483647,0,0,1,1,3,3,4,4,6,6,7,7,8,8],"right_children":[2,4,-1,6,8,-1,10,12,14,-1,-1,-1,-1,-1,-1],"split_conditions":[1E0,1.72E2,8.5098386E-2,2E0,6.07E2,-9.0011E-2,8E0,6E0,2E1,-6.338359E-2,-5.014188E-2,-2.5960317E-2,-4.6655696E-2,-1.3029232E-2,3.155545E-3],"split_indices":[5,4,0,4,4,0,4,1,0,0,0,0,0,0,0],"split_type":[0,0,0,0,0,0,0,0,0,0,0,0,0,0,0],"sum_hessian":[2.4965159E3,1.6778297E3,8.186861E2,8.0723425E2,8.7059546E2,1.0122207E2,7.060122E2,6.053879E2,2.6520758E2,3.1358136E2,3.9243082E2,5.364699E2,6.891798E1,1.9074673E2,7.4460846E1],"tree_param":{"num_deleted":"0","num_feature":"7","num_nodes":"15","size_leaf_vector":"1"}},{"base_weights":[-9.294198E-3,-7.9477644E-1,8.222725E-2,-1.2134904E0,-4.7030902E-1,-8.6542316E-2,-1.1259423E0,-6.939502E-1,-3.4239188E-1,-6.342419E-2,-4.92666E-2,-5.3519983E-2,-3.026773E-2,-2.2053016E-2,-1.0567002E-2],"categories":[],"categories_nodes":[],"categories_segments":[],"categories_sizes":[],"default_left":[0,0,0,0,0,0,0,0,0,0,0,0,0,0,0],"id":4,"left_children":[1,3,-1,5,7,-1,9,11,13,-1,-1,-1,-1,-1,-1],"loss_changes":[3.2143792E3,2.2734705E2,0E0,3.1196777E1,2.6848236E1,0E0,1.135199E1,1.0809326E1,7.7205124E0,0E0,0E0,0E0,0E0,0E0,0E0],"parents":[2147483647,0,0,1,1,3,3,4,4,6,6,7,7,8,8],"right_children":[2,4,-1,6,8,-1,10,12,14,-1,-1,-1,-1,-1,-1],"split_conditions":[1E0,9.5E1,8.222725E-2,2E0,2.57E2,-8.6542316E-2,8E0,4E0,6.07E2,-6.342419E-2,-4.92666E-2,-5.3519983E-2,-3.026773E-2,-2.2053016E-2,-1.0567002E-2],"split_indices":[5,4,0,4,4,0,4,0,4,0,0,0,0,0,0],"split_type":[0,0,0,0,0,0,0,0,0,0,0,0,0,0,0],"sum_hessian":[2.4723794E3,1.6766045E3,7.95775E2,7.3079675E2,9.458077E2,1.03051895E2,6.277449E2,3.4252917E2,6.032785E2,3.0774866E2,3.1999622E2,6.3143925E1,2.7938525E2,3.4281146E2,2.6046704E2],"tree_param":{"num_deleted":"0","num_feature":"7","num_nodes":"15","size_leaf_vector":"1"}},{"base_weights":[-4.7819684E-3,-7.541116E-1,7.967703E-2,-1.1718546E0,-4.3537843E-1,-7.236995E-1,-1.3149458E0,3.9989132E-1,-5.0191766E-1,-8.159559E-2,-2.403104E-2,-7.284617E-2,-5.746248E-2,4.8613574E-2,-1.3393106E-2,-3.0917635E-2,-1.064935E-2],"categories":[1,2,5,7,10,13,0,1,2,3,4,5,6,7,8,9,13],"categories_nodes":[3,4],"categories_segments":[0,6],"categories_sizes":[6,11],"default_left":[0,0,0,1,1,0,0,0,0,0,0,0,0,0,0,0,0],"id":5,"left_children":[1,3,-1,5,7,9,11,13,15,-1,-1,-1,-1,-1,-1,-1,-1],"loss_changes":[2.9502788E3,2.2279138E2,0E0,4.5554626E1,5.315927E1,3.845462E1,1.1228699E1,2.734488E1,2.957399E1,0E0,0E0,0E0,0E0,0E0,0E0,0E0,0E0],"parents":[2147483647,0,0,1,1,3,3,4,4,5,5,6,6,7,7,8,8],"right_children":[2,4,-1,6,8,10,12,14,16,-1,-1,-1,-1,-1,-1,-1,-1],"split_conditions":[1E0,9.5E1,7.967703E-2,1E-45,1E-45,2E0,8E0,8E0,6.07E2,-8.159559E-2,-2.403104E-2,-7.284617E-2,-5.746248E-2,4.8613574E-2,-1.3393106E-2,-3.0917635E-2,-1.064935E-2],"split_indices":[5,4,0,6,6,4,4,0,4,0,0,0,0,0,0,0,0],"split_type":[0,0,0,1,1,0,0,0,0,0,0,0,0,0,0,0,0],"sum_hessian":[2.4613447E3,1.6760859E3,7.852587E2,7.2422034E2,9.5186566E2,1.7673915E2,5.474812E2,6.986295E1,8.820027E2,3.6109634E1,1.4062952E2,2.9064673E2,2.5683447E2,3.7372353E1,3.24906E1,6.2784827E2,2.5415442E2],"tree_param":{"num_deleted":"0","num_feature":"7","num_nodes":"17","size_leaf_vector":"1"}},{"base_weights":[-3.9403109E-4,-7.1774584E-1,7.739738E-2,-1.1049546E0,-4.6762425E-1,-7.145029E-1,-1.253316E0,4.4123203E-1,-5.2247876E-1,-2.374929E-2,-4.0649768E-2,-6.806489E-2,-5.9664916E-2,4.602908E-2,-1.3046029E-2,-1.3431633E-2,-2.9122358E-2],"categories":[1,2,5,7,13,0,1,2,3,4,5,6,7,8,9,10,13,0,10,12,15,1,2,3,7,8,13],"categories_nodes":[3,4,5,8],"categories_segments":[0,5,17,21],"categories_sizes":[5,12,4,6],"default_left":[0,0,0,1,1,1,0,0,1,0,0,0,0,0,0,0,0],"id":6,"left_children":[1,3,-1,5,7,9,11,13,15,-1,-1,-1,-1,-1,-1,-1,-1],"loss_changes":[2.7045208E3,1.6064185E2,0E0,3.68916E1,5.0718597E1,3.9058914E0,1.4304199E0,1.9823975E1,1.438913E1,0E0,0E0,0E0,0E0,0E0,0E0,0E0,0E0],"parents":[2147483647,0,0,1,1,3,3,4,4,5,5,6,6,7,7,8,8],"right_children":[2,4,-1,6,8,10,12,14,16,-1,-1,-1,-1,-1,-1,-1,-1],"split_conditions":[1E0,2E0,7.739738E-2,1E-45,1E-45,1E-45,6E0,8E0,1E-45,-2.374929E-2,-4.0649768E-2,-6.806489E-2,-5.9664916E-2,4.602908E-2,-1.3046029E-2,-1.3431633E-2,-2.9122358E-2],"split_indices":[5,3,0,6,6,6,0,0,6,0,0,0,0,0,0,0,0],"split_type":[0,0,0,1,1,1,0,0,1,0,0,0,0,0,0,0,0],"sum_hessian":[2.4329573E3,1.6630138E3,7.6994336E2,6.513118E2,1.01170197E3,1.809392E2,4.7037265E2,5.7185215E1,9.545167E2,5.442042E1,1.2651877E2,1.6029448E2,3.1007816E2,3.3799614E1,2.33856E1,1.834507E2,7.7106604E2],"tree_param":{"num_deleted":"0","num_feature":"7","num_nodes":"17","size_leaf_vector":"1"}},{"base_weights":[4.6060416E-3,-6.8534595E-1,7.535092E-2,-1.0049611E0,-3.6977556E-1,-5.715743E-1,-1.1432526E0,3.725956E-1,-4.3528596E-1,-7.7727415E-2,-1.8780477E-2,-7.898107E-2,-5.4430526E-2,2.3809662E-2,-7.0951946E-2,-2.7628511E-2,-9.644133E-3],"categories":[0,1,2,5,7,13,0,1,2,3,4,5,7,8,12,13],"categories_nodes":[3,4],"categories_segments":[0,6],"categories_sizes":[6,10],"default_left":[0,0,0,1,1,0,0,0,0,0,0,0,0,0,0,0,0],"id":7,"left_children":[1,3,-1,5,7,9,11,13,15,-1,-1,-1,-1,-1,-1,-1,-1],"loss_changes":[2.5105679E3,1.670321E2,0E0,4.87323E1,4.0855385E1,3.819806E1,1.3151367E1,1.33694105E1,2.1766113E1,0E0,0E0,0E0,0E0,0E0,0E0,0E0,0E0],"parents":[2147483647,0,0,1,1,3,3,4,4,5,5,6,6,7,7,8,8],"right_children":[2,4,-1,6,8,10,12,14,16,-1,-1,-1,-1,-1,-1,-1,-1],"split_conditions":[1E0,1.83E2,7.535092E-2,1E-45,1E-45,2E0,2E0,2.3E1,6.07E2,-7.7727415E-2,-1.8780477E-2,-7.898107E-2,-5.4430526E-2,2.3809662E-2,-7.0951946E-2,-2.7628511E-2,-9.644133E-3],"split_indices":[5,4,0,6,6,4,4,0,4,0,0,0,0,0,0,0,0],"split_type":[0,0,0,1,1,0,0,0,0,0,0,0,0,0,0,0,0],"sum_hessian":[2.419947E3,1.658746E3,7.612011E2,8.230062E2,8.357397E2,2.003306E2,6.2267566E2,6.738929E1,7.683504E2,3.2146828E1,1.6818376E2,6.6188545E1,5.564871E2,6.439972E1,2.9895697E0,5.169501E2,2.5140031E2],"tree_param":{"num_deleted":"0","num_feature":"7","num_nodes":"17","size_leaf_vector":"1"}},{"base_weights":[-3.3881057E-3,-6.7175496E-1,7.350438E-2,-1.0072168E0,-3.6375508E-1,-6.0867894E-1,-1.1390305E0,1.3416852E-1,-4.698984E-1,-7.5760566E-2,-1.9890238E-2,-6.410338E-2,-5.0180137E-2,1.8603118E-2,-8.468147E-3,-3.147841E-2,-1.6201926E-2],"categories":[1,2,5,7,10,13,0,1,2,7,9,13],"categories_nodes":[3,4],"categories_segments":[0,6],"categories_sizes":[6,6],"default_left":[0,0,0,1,1,0,0,0,0,0,0,0,0,0,0,0,0],"id":8,"left_children":[1,3,-1,5,7,9,11,13,15,-1,-1,-1,-1,-1,-1,-1,-1],"loss_changes":[2.3625796E3,1.7015411E2,0E0,4.0776367E1,4.5619324E1,3.731404E1,1.018219E1,1.105591E1,1.6348541E1,0E0,0E0,0E0,0E0,0E0,0E0,0E0,0E0],"parents":[2147483647,0,0,1,1,3,3,4,4,5,5,6,6,7,7,8,8],"right_children":[2,4,-1,6,8,10,12,14,16,-1,-1,-1,-1,-1,-1,-1,-1],"split_conditions":[1E0,1.72E2,7.350438E-2,1E-45,1E-45,2E0,8E0,9E0,3.79E2,-7.5760566E-2,-1.9890238E-2,-6.410338E-2,-5.0180137E-2,1.8603118E-2,-8.468147E-3,-3.147841E-2,-1.6201926E-2],"split_indices":[5,4,0,6,6,4,4,0,4,0,0,0,0,0,0,0,0],"split_type":[0,0,0,1,1,0,0,0,0,0,0,0,0,0,0,0,0],"sum_hessian":[2.396988E3,1.6493767E3,7.4761127E2,7.8840533E2,8.6097144E2,1.9734665E2,5.9105865E2,1.5123875E2,7.0973267E2,3.6075474E1,1.6127118E2,2.83336E2,3.077227E2,8.466023E1,6.657853E1,3.372433E2,3.7248938E2],"tree_param":{"num_deleted":"0","num_feature":"7","num_nodes":"17","size_leaf_vector":"1"}},{"base_weights":[1.2504621E-2,-6.061833E-1,7.1829E-2,-1.0008196E0,-3.6159784E-1,-5.9589046E-1,-1.131102E0,1.3864172E-3,-4.7470018E-1,-7.3497765E-2,-1.8332947E-2,-7.493278E-2,-5.3541493E-2,-1.4587209E-2,1.2977228E-2,-3.227603E-2,-1.35254385E-2],"categories":[0,1,2,5,7,13,1,2,7,8,9,13],"categories_nodes":[3,4],"categories_segments":[0,6],"categories_sizes":[6,6],"default_left":[0,0,0,1,1,0,0,0,0,0,0,0,0,0,0,0,0],"id":9,"left_children":[1,3,-1,5,7,9,11,13,15,-1,-1,-1,-1,-1,-1,-1,-1],"loss_changes":[2.0709863E3,1.5780621E2,0E0,3.237378E1,4.159822E1,3.0437664E1,8.870056E0,1.8366673E1,2.6771072E1,0E0,0E0,0E0,0E0,0E0,0E0,0E0,0E0],"parents":[2147483647,0,0,1,1,3,3,4,4,5,5,6,6,7,7,8,8],"right_children":[2,4,-1,6,8,10,12,14,16,-1,-1,-1,-1,-1,-1,-1,-1],"split_conditions":[1E0,4.7E1,7.1829E-2,1E-45,1E-45,2E0,2E0,2.57E2,3.79E2,-7.3497765E-2,-1.8332947E-2,-7.493278E-2,-5.3541493E-2,-1.4587209E-2,1.2977228E-2,-3.227603E-2,-1.35254385E-2],"split_indices":[5,4,0,6,6,4,4,4,4,0,0,0,0,0,0,0,0],"split_type":[0,0,0,1,1,0,0,0,0,0,0,0,0,0,0,0,0],"sum_hessian":[2.3485789E3,1.6376696E3,7.1090936E2,6.254385E2,1.0122311E3,1.5360239E2,4.718361E2,2.4070708E2,7.71524E2,3.078936E1,1.2281303E2,6.3110107E1,4.0872598E2,1.1265766E2,1.2804941E2,4.1891272E2,3.526113E2],"tree_param":{"num_deleted":"0","num_feature":"7","num_nodes":"17","size_leaf_vector":"1"}},{"base_weights":[6.0585933E-3,-6.0126746E-1,7.030957E-2,-9.3213737E-1,-3.3045882E-1,-5.4004836E-1,-1.0407405E0,2.622665E-2,-4.447557E-1,-7.128742E-2,-1.7650757E-2,-7.313598E-2,-4.913813E-2,-1.2248325E-2,1.3173798E-2,-2.8217597E-2,-8.993724E-3],"categories":[0,1,2,5,7,10,13,0,1,3,7,9,13],"categories_nodes":[3,4],"categories_segments":[0,7],"categories_sizes":[7,6],"default_left":[0,0,0,1,1,0,0,0,0,0,0,0,0,0,0,0,0],"id":10,"left_children":[1,3,-1,5,7,9,11,13,15,-1,-1,-1,-1,-1,-1,-1,-1],"loss_changes":[1.9692261E3,1.4441864E2,0E0,3.0371216E1,3.6285904E1,2.5943127E1,1.2453796E1,1.4018169E1,2.1246796E1,0E0,0E0,0E0,0E0,0E0,0E0,0E0,0E0],"parents":[2147483647,0,0,1,1,3,3,4,4,5,5,6,6,7,7,8,8],"right_children":[2,4,-1,6,8,10,12,14,16,-1,-1,-1,-1,-1,-1,-1,-1],"split_conditions":[1E0,1.66E2,7.030957E-2,1E-45,1E-45,2E0,2E0,2.57E2,6.07E2,-7.128742E-2,-1.7650757E-2,-7.313598E-2,-4.913813E-2,-1.2248325E-2,1.3173798E-2,-2.8217597E-2,-8.993724E-3],"split_indices":[5,4,0,6,6,4,4,4,4,0,0,0,0,0,0,0,0],"split_type":[0,0,0,1,1,0,0,0,0,0,0,0,0,0,0,0,0],"sum_hessian":[2.313824E3,1.6142097E3,6.996142E2,7.2543823E2,8.8877155E2,1.5864734E2,5.667909E2,2.1587198E2,6.7289954E2,2.6505754E1,1.3214159E2,6.554043E1,5.0125046E2,1.0071496E2,1.1515701E2,4.6280737E2,2.1009218E2],"tree_param":{"num_deleted":"0","num_feature":"7","num_nodes":"17","size_leaf_vector":"1"}},{"base_weights":[1.3194705E-3,-5.6801516E-1,6.892141E-2,-9.415667E-1,-3.4184957E-1,-7.16831E-2,-8.5400623E-1,3.3437562E-1,-3.9638728E-1,-2.1372067E-2,-5.0570976E-2,3.900474E-2,-1.3125095E-2,-2.605595E-2,-1.2074187E-2],"categories":[0,1,2,3,4,5,6,7,8,9,13,1,2,5,7,13],"categories_nodes":[4,6],"categories_segments":[0,11],"categories_sizes":[11,5],"default_left":[0,0,0,0,1,0,1,0,0,0,0,0,0,0,0],"id":11,"left_children":[1,3,-1,5,7,-1,9,11,13,-1,-1,-1,-1,-1,-1],"loss_changes":[1.7978711E3,1.3674316E2,0E0,2.5113586E1,3.745894E1,0E0,3.4578003E1,2.0444403E1,1.7978928E1,0E0,0E0,0E0,0E0,0E0,0E0],"parents":[2147483647,0,0,1,1,3,3,4,4,6,6,7,7,8,8],"right_children":[2,4,-1,6,8,-1,10,12,14,-1,-1,-1,-1,-1,-1],"split_conditions":[1E0,4.7E1,6.892141E-2,2E0,1E-45,-7.16831E-2,1E-45,8E0,1.7E1,-2.1372067E-2,-5.0570976E-2,3.900474E-2,-1.3125095E-2,-2.605595E-2,-1.2074187E-2],"split_indices":[5,4,0,4,6,0,6,0,0,0,0,0,0,0,0],"split_type":[0,0,0,0,1,0,1,0,0,0,0,0,0,0,0],"sum_hessian":[2.2910999E3,1.6213689E3,6.69731E2,6.1025854E2,1.01111035E3,8.9860916E1,5.2039764E2,7.5077446E1,9.3603296E2,1.4127644E2,3.791212E2,4.280545E1,3.2271996E1,5.172044E2,4.1882852E2],"tree_param":{"num_deleted":"0","num_feature":"7","num_nodes":"15","size_leaf_vector":"1"}},{"base_weights":[1.2067004E-2,-5.437013E-1,6.765543E-2,-8.295008E-1,-2.7303797E-1,-4.8095828E-1,-9.6246666E-1,7.6840353E-1,-3.1367213E-1,-6.8792954E-2,-1.5427326E-2,-5.7986468E-2,-4.1059542E-2,4.1044805E-2,-1.2727419E-2,-4.193147E-3,-1.9882217E-2],"categories":[1,2,5,7,8,13,0,1,2,3,4,5,6,7,8,9,10,11,12,13,14,7,9,13],"categories_nodes":[3,4,8],"categories_segments":[0,6,21],"categories_sizes":[6,15,3],"default_left":[0,0,0,1,1,0,0,0,1,0,0,0,0,0,0,0,0],"id":12,"left_children":[1,3,-1,5,7,9,11,13,15,-1,-1,-1,-1,-1,-1,-1,-1],"loss_changes":[1.6918712E3,1.23923065E2,0E0,3.56922E1,3.5186424E1,3.3123203E1,1.4757446E1,1.8896599E0,1.531749E1,0E0,0E0,0E0,0E0,0E0,0E0,0E0,0E0],"parents":[2147483647,0,0,1,1,3,3,4,4,5,5,6,6,7,7,8,8],"right_children":[2,4,-1,6,8,10,12,14,16,-1,-1,-1,-1,-1,-1,-1,-1],"split_conditions":[1E0,1.83E2,6.765543E-2,1E-45,1E-45,2E0,7E0,6E0,1E-45,-6.8792954E-2,-1.5427326E-2,-5.7986468E-2,-4.1059542E-2,4.1044805E-2,-1.2727419E-2,-4.193147E-3,-1.9882217E-2],"split_indices":[5,4,0,6,6,4,4,1,6,0,0,0,0,0,0,0,0],"split_type":[0,0,0,1,1,0,0,0,1,0,0,0,0,0,0,0,0],"sum_hessian":[2.2680415E3,1.6039221E3,6.641194E2,7.7914276E2,8.247793E2,2.1643088E2,5.627119E2,3.0299566E1,7.9447974E2,3.3834312E1,1.8259657E2,2.3181737E2,3.308945E2,2.9008524E1,1.2910428E0,2.1314859E2,5.813311E2],"tree_param":{"num_deleted":"0","num_feature":"7","num_nodes":"17","size_leaf_vector":"1"}},{"base_weights":[6.8486948E-3,-5.361965E-1,2.57131E-1,-8.423725E-2,-7.626505E-1,7.409612E-1,1.2023905E-1,-6.743568E-2,1.3062006E-1,-6.848562E-2,-6.8415564E-1,-1.0545232E-1,8.016985E-1,-3.0260809E-2,4.436413E-1,-6.493121E-3,2.4213595E-2,-4.8108336E-2,-3.0679777E-2,-3.454655E-2,9.450079E-3,4.267117E-2,2.6569187E-3,-1.8337766E-2,2.675506E-3,6.2949667E-3,2.4058666E-2],"categories":[1,2,5,7,13,1,2,3,4,5,7,8,11,13,14],"categories_nodes":[1,2],"categories_segments":[0,5],"categories_sizes":[5,10],"default_left":[0,1,1,0,0,0,0,0,0,0,0,0,0,0,0,0,0,0,0,0,0,0,0,0,0,0,0],"id":13,"left_children":[1,3,5,7,9,11,13,-1,15,-1,17,19,21,23,25,-1,-1,-1,-1,-1,-1,-1,-1,-1,-1,-1,-1],"loss_changes":[3.040564E2,7.2170685E1,1.01334076E2,6.448671E1,2.1462128E1,1.7435974E1,5.8166832E1,0E0,1.8785774E1,0E0,7.614044E0,4.1787915E0,1.2152618E1,2.3029806E1,4.465187E0,0E0,0E0,0E0,0E0,0E0,0E0,0E0,0E0,0E0,0E0,0E0,0E0],"parents":[2147483647,0,0,1,1,2,2,3,3,4,4,5,5,6,6,8,8,10,10,11,11,12,12,13,13,14,14],"right_children":[2,4,6,8,10,12,14,-1,16,-1,18,20,22,24,26,-1,-1,-1,-1,-1,-1,-1,-1,-1,-1,-1,-1],"split_conditions":[4.7E1,1E-45,1E-45,2E0,2E0,1E0,6.07E2,-6.743568E-2,8E0,-6.848562E-2,4E0,1.83E2,6E0,1.83E2,2E0,-6.493121E-3,2.4213595E-2,-4.8108336E-2,-3.0679777E-2,-3.454655E-2,9.450079E-3,4.267117E-2,2.6569187E-3,-1.8337766E-2,2.675506E-3,6.2949667E-3,2.4058666E-2],"split_indices":[4,6,6,4,4,1,4,0,4,0,0,4,1,4,0,0,0,0,0,0,0,0,0,0,0,0,0],"split_type":[0,1,1,0,0,0,0,0,0,0,0,0,0,0,0,0,0,0,0,0,0,0,0,0,0,0,0],"sum_hessian":[2.2350989E3,7.04778E2,1.5303208E3,2.3571252E2,4.6906552E2,3.3651862E2,1.1938021E3,3.3468243E1,2.0224428E2,5.182359E1,4.172419E2,2.2481943E1,3.1403668E2,8.1529803E2,3.7850412E2,1.1682762E2,8.541666E1,8.1903E1,3.3533893E2,7.072608E0,1.5409334E1,2.9360846E2,2.04282E1,1.6183888E2,6.534591E2,4.044608E1,3.3805804E2],"tree_param":{"num_deleted":"0","num_feature":"7","num_nodes":"27","size_leaf_vector":"1"}},{"base_weights":[1.0354721E-2,-5.1452035E-1,6.625071E-2,-8.893059E-1,-3.0059165E-1,-6.754527E-2,-8.104828E-1,2.1816367E-1,-3.713695E-1,-2.224221E-2,-4.6537038E-2,3.2587223E-2,-1.1415409E-2,-2.33843E-2,-5.705709E-3],"categories":[0,1,2,5,7,8,9,13,1,2,5,7,10,13],"categories_nodes":[4,6],"categories_segments":[0,8],"categories_sizes":[8,6],"default_left":[0,0,0,0,1,0,1,0,0,0,0,0,0,0,0],"id":14,"left_children":[1,3,-1,5,7,-1,9,11,13,-1,-1,-1,-1,-1,-1],"loss_changes":[1.5394376E3,1.2756891E2,0E0,1.9967224E1,3.740483E1,0E0,2.1436981E1,2.3896152E1,2.2119667E1,0E0,0E0,0E0,0E0,0E0,0E0],"parents":[2147483647,0,0,1,1,3,3,4,4,6,6,7,7,8,8],"right_children":[2,4,-1,6,8,-1,10,12,14,-1,-1,-1,-1,-1,-1],"split_conditions":[1E0,4.7E1,6.625071E-2,2E0,1E-45,-6.754527E-2,1E-45,8E0,6.07E2,-2.224221E-2,-4.6537038E-2,3.2587223E-2,-1.1415409E-2,-2.33843E-2,-5.705709E-3],"split_indices":[5,4,0,4,6,0,6,0,4,0,0,0,0,0,0],"split_type":[0,0,0,0,1,0,1,0,0,0,0,0,0,0,0],"sum_hessian":[2.2289775E3,1.5934176E3,6.3556006E2,5.7787354E2,1.015544E3,8.193157E1,4.95942E2,1.2167361E2,8.938704E2,1.23907166E2,3.7203482E2,6.1494698E1,6.017891E1,6.4977606E2,2.4409433E2],"tree_param":{"num_deleted":"0","num_feature":"7","num_nodes":"15","size_leaf_vector":"1"}},{"base_weights":[1.3081679E-2,-4.886284E-1,6.5201245E-2,-7.993757E-1,-2.5093687E-1,-6.633931E-2,-7.274049E-1,-4.289273E-1,-1.6309652E-1,-4.9831323E-2,-3.331225E-2,-3.635887E-2,-1.792546E-2,-1.2793285E-2,-1.7903222E-3],"categories":[],"categories_nodes":[],"categories_segments":[],"categories_sizes":[],"default_left":[0,0,0,0,0,0,0,0,0,0,0,0,0,0,0],"id":15,"left_children":[1,3,-1,5,7,-1,9,11,13,-1,-1,-1,-1,-1,-1],"loss_changes":[1.4170382E3,1.16174194E2,0E0,2.4937164E1,1.3910328E1,0E0,9.259186E0,5.9319496E0,7.0798206E0,0E0,0E0,0E0,0E0,0E0,0E0],"parents":[2147483647,0,0,1,1,3,3,4,4,6,6,7,7,8,8],"right_children":[2,4,-1,6,8,-1,10,12,14,-1,-1,-1,-1,-1,-1],"split_conditions":[1E0,1.66E2,6.5201245E-2,2E0,2.57E2,-6.633931E-2,4E0,4E0,1.8E1,-4.9831323E-2,-3.331225E-2,-3.635887E-2,-1.792546E-2,-1.2793285E-2,-1.7903222E-3],"split_indices":[5,4,0,4,4,0,0,0,0,0,0,0,0,0,0],"split_type":[0,0,0,0,0,0,0,0,0,0,0,0,0,0,0],"sum_hessian":[2.185887E3,1.5745701E3,6.113169E2,6.8138916E2,8.931809E2,7.972445E1,6.016647E2,2.9385703E2,5.993239E2,1.0854804E2,4.9311667E2,5.434725E1,2.3950977E2,3.460859E2,2.53238E2],"tree_param":{"num_deleted":"0","num_feature":"7","num_nodes":"15","size_leaf_vector":"1"}},{"base_weights":[6.1782477E-3,-4.7412547E-1,6.4231835E-2,-7.374084E-1,-2.3364222E-1,-4.300678E-1,-8.588044E-1,3.0870393E-1,-2.8625312E-1,-6.3805826E-2,-1.4091645E-2,-5.4021128E-2,-3.680406E-2,2.8706944E-2,-2.7352476E-2,-2.2064403E-2,-4.659746E-3],"categories":[1,2,5,7,13,0,1,2,3,4,5,7,8,9,13],"categories_nodes":[3,4],"categories_segments":[0,5],"categories_sizes":[5,10],"default_left":[0,0,0,1,1,0,0,0,0,0,0,0,0,0,0,0,0],"id":16,"left_children":[1,3,-1,5,7,9,11,13,15,-1,-1,-1,-1,-1,-1,-1,-1],"loss_changes":[1.3160798E3,9.8471436E1,0E0,2.7361969E1,2.3363277E1,2.6285648E1,1.3668762E1,1.6807848E1,2.2230259E1,0E0,0E0,0E0,0E0,0E0,0E0,0E0,0E0],"parents":[2147483647,0,0,1,1,3,3,4,4,5,5,6,6,7,7,8,8],"right_children":[2,4,-1,6,8,10,12,14,16,-1,-1,-1,-1,-1,-1,-1,-1],"split_conditions":[1E0,1.83E2,6.4231835E-2,1E-45,1E-45,2E0,6E0,2.1E1,1.8E1,-6.3805826E-2,-1.4091645E-2,-5.4021128E-2,-3.680406E-2,2.8706944E-2,-2.7352476E-2,-2.2064403E-2,-4.659746E-3],"split_indices":[5,4,0,6,6,4,4,0,0,0,0,0,0,0,0,0,0],"split_type":[0,0,0,1,1,0,0,0,0,0,0,0,0,0,0,0,0],"sum_hessian":[2.141292E3,1.5569799E3,5.843122E2,7.4227026E2,8.1470953E2,2.1145882E2,5.3081146E2,7.161278E1,7.4309674E2,3.0391428E1,1.810674E2,1.864E2,3.4441147E2,5.4910038E1,1.6702742E1,4.1142065E2,3.316761E2],"tree_param":{"num_deleted":"0","num_feature":"7","num_nodes":"17","size_leaf_vector":"1"}},{"base_weights":[8.803304E-3,-4.704269E-1,2.2167397E-1,-6.431464E-2,-3.6077097E-1,6.678287E-1,9.97704E-2,1.1992386E-1,-5.997799E-1,-1.4579943E-1,7.280051E-1,-2.3863714E-2,3.7617677E-1,-1.0744848E-3,2.7536018E-2,-3.5940986E-2,-2.2132352E-2,3.993104E-2,-1.3665325E-2,3.8460787E-2,6.154565E-3,-6.9328547E-3,4.9508475E-3,1.9456873E-2,-1.4104954E-2],"categories":[1,2,3,4,5,7,8,11,13,14,1,2,5,7,13,0,2,3,4,6,7,8],"categories_nodes":[2,4,12],"categories_segments":[0,10,15],"categories_sizes":[10,5,7],"default_left":[0,0,1,0,1,0,0,0,0,0,0,0,1,0,0,0,0,0,0,0,0,0,0,0,0],"id":17,"left_children":[1,3,5,-1,7,9,11,13,15,17,19,21,23,-1,-1,-1,-1,-1,-1,-1,-1,-1,-1,-1,-1],"loss_changes":[2.1531146E2,5.7613495E1,7.941659E1,0E0,6.597818E1,1.5452545E1,3.9273212E1,1.1668178E1,6.8516235E0,2.9179509E0,7.1850586E0,1.1225374E1,3.139843E0,0E0,0E0,0E0,0E0,0E0,0E0,0E0,0E0,0E0,0E0,0E0,0E0],"parents":[2147483647,0,0,1,1,2,2,4,4,5,5,6,6,7,7,8,8,9,9,10,10,11,11,12,12],"right_children":[2,4,6,-1,8,10,12,14,16,18,20,22,24,-1,-1,-1,-1,-1,-1,-1,-1,-1,-1,-1,-1],"split_conditions":[4.7E1,2E0,1E-45,-6.431464E-2,1E-45,1E0,6.07E2,1.1E1,9E0,9.4E1,6E0,2.57E2,1E-45,-1.0744848E-3,2.7536018E-2,-3.5940986E-2,-2.2132352E-2,3.993104E-2,-1.3665325E-2,3.8460787E-2,6.154565E-3,-6.9328547E-3,4.9508475E-3,1.9456873E-2,-1.4104954E-2],"split_indices":[4,4,6,0,6,1,4,4,4,4,1,4,6,0,0,0,0,0,0,0,0,0,0,0,0],"split_type":[0,0,1,0,1,0,0,0,0,0,0,0,1,0,0,0,0,0,0,0,0,0,0,0,0],"sum_hessian":[2.1085835E3,6.481685E2,1.4604149E3,7.5523766E1,5.726448E2,3.1243954E2,1.1479755E3,1.9033708E2,3.823077E2,2.141884E1,2.910207E2,7.938203E2,3.541551E2,1.4401329E2,4.6323788E1,2.1548627E2,1.6682143E2,1.9217159E0,1.9497126E1,2.7220474E2,1.881597E1,4.1034937E2,3.8347098E2,3.477178E2,6.437293E0],"tree_param":{"num_deleted":"0","num_feature":"7","num_nodes":"25","size_leaf_vector":"1"}},{"base_weights":[3.7547713E-4,-4.6495992E-1,6.3188374E-2,-7.6742923E-1,-2.9831117E-1,-4.3840057E-1,-8.924293E-1,3.7105376E-1,-3.4070385E-1,-6.1608095E-2,-1.32818865E-2,-5.782145E-2,-4.097437E-2,3.3546254E-2,-5.291915E-2,-2.2373319E-2,-1.0527521E-2],"categories":[1,2,5,7,10,13,0,1,2,4,5,6,7,8,9,10,13],"categories_nodes":[3,4],"categories_segments":[0,6],"categories_sizes":[6,11],"default_left":[0,0,0,1,1,0,0,0,0,0,0,0,0,0,0,0,0],"id":18,"left_children":[1,3,-1,5,7,9,11,13,15,-1,-1,-1,-1,-1,-1,-1,-1],"loss_changes":[1.2455012E3,7.781424E1,0E0,2.2203796E1,2.8500107E1,2.0683554E1,6.7003174E0,2.6443502E1,1.2979759E1,0E0,0E0,0E0,0E0,0E0,0E0,0E0,0E0],"parents":[2147483647,0,0,1,1,3,3,4,4,5,5,6,6,7,7,8,8],"right_children":[2,4,-1,6,8,10,12,14,16,-1,-1,-1,-1,-1,-1,-1,-1],"split_conditions":[1E0,4.7E1,6.3188374E-2,1E-45,1E-45,2E0,3E0,2.1E1,3.79E2,-6.1608095E-2,-1.32818865E-2,-5.782145E-2,-4.097437E-2,3.3546254E-2,-5.291915E-2,-2.2373319E-2,-1.0527521E-2],"split_indices":[5,4,0,6,6,4,4,0,4,0,0,0,0,0,0,0,0],"split_type":[0,0,0,1,1,0,0,0,0,0,0,0,0,0,0,0,0],"sum_hessian":[2.1165562E3,1.5472877E3,5.692685E2,5.483753E2,9.989124E2,1.522158E2,3.9615952E2,5.903401E1,9.3987836E2,2.6111952E1,1.2610384E2,8.2545906E1,3.136136E2,4.9235817E1,9.798194E0,5.149974E2,4.24881E2],"tree_param":{"num_deleted":"0","num_feature":"7","num_nodes":"17","size_leaf_vector":"1"}},{"base_weights":[-1.0896272E-2,-4.49686E-1,6.2361497E-2,-6.9384706E-1,-2.353173E-1,-6.250473E-2,-6.31626E-1,-4.220068E-1,-1.653826E-1,-3.7860785E-2,-2.7314229E-2,3.9900565E-3,-2.6026888E-2,-1.7729647E-3,-1.1969006E-2],"categories":[],"categories_nodes":[],"categories_segments":[],"categories_sizes":[],"default_left":[0,0,0,0,0,0,0,0,0,0,0,0,0,0,0],"id":19,"left_children":[1,3,-1,5,7,-1,9,11,13,-1,-1,-1,-1,-1,-1],"loss_changes":[1.1357236E3,7.967087E1,0E0,2.3872894E1,1.0554031E1,0E0,6.477051E0,1.0973782E1,5.698395E0,0E0,0E0,0E0,0E0,0E0,0E0],"parents":[2147483647,0,0,1,1,3,3,4,4,6,6,7,7,8,8],"right_children":[2,4,-1,6,8,-1,10,12,14,-1,-1,-1,-1,-1,-1],"split_conditions":[1E0,1.83E2,6.2361497E-2,2E0,2.57E2,-6.250473E-2,8E0,2.08E2,6E0,-3.7860785E-2,-2.7314229E-2,3.9900565E-3,-2.6026888E-2,-1.7729647E-3,-1.1969006E-2],"split_indices":[5,4,0,4,4,0,4,4,0,0,0,0,0,0,0],"split_type":[0,0,0,0,0,0,0,0,0,0,0,0,0,0,0],"sum_hessian":[2.0552573E3,1.5242839E3,5.3097345E2,7.11577E2,8.1270685E2,6.966754E1,6.419095E2,2.2010533E2,5.926015E2,2.565275E2,3.8538202E2,3.6156105E1,1.8394922E2,2.1557632E2,3.7702518E2],"tree_param":{"num_deleted":"0","num_feature":"7","num_nodes":"15","size_leaf_vector":"1"}},{"base_weights":[2.4180633E-3,-4.137408E-1,6.1611176E-2,-7.3445576E-1,-2.4311852E-1,-6.168278E-2,-6.5841687E-1,-1.4739053E-2,-3.298895E-1,-1.6182158E-2,-3.96198E-2,-1.2966096E-2,1.4509697E-2,-2.2226332E-2,-8.467299E-3],"categories":[0,1,7,13,1,2,5,7,13],"categories_nodes":[4,6],"categories_segments":[0,4],"categories_sizes":[4,5],"default_left":[0,0,0,0,1,0,1,0,0,0,0,0,0,0,0],"id":20,"left_children":[1,3,-1,5,7,-1,9,11,13,-1,-1,-1,-1,-1,-1],"loss_changes":[1.0425042E3,8.3104065E1,0E0,1.923056E1,1.9711353E1,0E0,2.0392181E1,2.0583826E1,1.3193199E1,0E0,0E0,0E0,0E0,0E0,0E0],"parents":[2147483647,0,0,1,1,3,3,4,4,6,6,7,7,8,8],"right_children":[2,4,-1,6,8,-1,10,12,14,-1,-1,-1,-1,-1,-1],"split_conditions":[1E0,4.7E1,6.1611176E-2,2E0,1E-45,-6.168278E-2,1E-45,2.57E2,1.8E1,-1.6182158E-2,-3.96198E-2,-1.2966096E-2,1.4509697E-2,-2.2226332E-2,-8.467299E-3],"split_indices":[5,4,0,4,6,0,6,4,0,0,0,0,0,0,0],"split_type":[0,0,0,0,1,0,1,0,0,0,0,0,0,0,0],"sum_hessian":[2.0349625E3,1.5209467E3,5.140158E2,5.27018E2,9.939287E2,6.765238E1,4.5936563E2,2.739824E2,7.199463E2,1.322723E2,3.2709332E2,1.5211914E2,1.2186325E2,4.189929E2,3.009534E2],"tree_param":{"num_deleted":"0","num_feature":"7","num_nodes":"15","size_leaf_vector":"1"}},{"base_weights":[-6.203738E-4,-3.9012092E-1,6.08893E-2,-6.8825847E-1,-2.3193903E-1,-3.7583992E-1,-8.248053E-1,2.1560751E-1,-2.8059438E-1,-5.9357625E-2,-1.05599575E-2,-6.046925E-2,-3.8693942E-2,1.1414465E-3,2.4721552E-2,-2.2128494E-2,-9.046852E-3],"categories":[1,2,5,7,13,0,1,2,4,5,7,8,9,10,13],"categories_nodes":[3,4],"categories_segments":[0,5],"categories_sizes":[5,10],"default_left":[0,0,0,1,1,0,0,0,0,0,0,0,0,0,0,0,0],"id":21,"left_children":[1,3,-1,5,7,9,11,13,15,-1,-1,-1,-1,-1,-1,-1,-1],"loss_changes":[9.544079E2,7.170882E1,0E0,2.2204025E1,2.177444E1,2.1434872E1,6.240326E0,5.274805E0,1.4444984E1,0E0,0E0,0E0,0E0,0E0,0E0,0E0,0E0],"parents":[2147483647,0,0,1,1,3,3,4,4,5,5,6,6,7,7,8,8],"right_children":[2,4,-1,6,8,10,12,14,16,-1,-1,-1,-1,-1,-1,-1,-1],"split_conditions":[1E0,4.7E1,6.08893E-2,1E-45,1E-45,2E0,2E0,2.57E2,2.57E2,-5.9357625E-2,-1.05599575E-2,-6.046925E-2,-3.8693942E-2,1.1414465E-3,2.4721552E-2,-2.2128494E-2,-9.046852E-3],"split_indices":[5,4,0,6,6,4,4,4,4,0,0,0,0,0,0,0,0],"split_type":[0,0,0,1,1,0,0,0,0,0,0,0,0,0,0,0,0],"sum_hessian":[2.0090997E3,1.5229291E3,4.861707E2,5.2675757E2,9.961715E2,1.6134756E2,3.6541E2,9.734369E1,8.988278E2,2.6171206E1,1.3517636E2,4.0069645E1,3.2534036E2,5.8191776E1,3.9151917E1,3.4105768E2,5.5777014E2],"tree_param":{"num_deleted":"0","num_feature":"7","num_nodes":"17","size_leaf_vector":"1"}},{"base_weights":[7.735395E-3,-3.8051632E-1,6.0248625E-2,-6.194705E-1,-1.8151979E-1,-6.0179334E-2,-5.592073E-1,2.5514987E-1,-2.2691986E-1,-1.179823E-2,-3.4422554E-2,1.7158236E-2,-6.8521865E-2,-1.7455405E-2,-3.6041022E-3],"categories":[0,1,2,3,4,5,7,8,13,1,2,5,7,13],"categories_nodes":[4,6],"categories_segments":[0,9],"categories_sizes":[9,5],"default_left":[0,0,0,0,1,0,1,0,0,0,0,0,0,0,0],"id":22,"left_children":[1,3,-1,5,7,-1,9,11,13,-1,-1,-1,-1,-1,-1],"loss_changes":[9.25881E2,7.1410126E1,0E0,2.3370087E1,1.635573E1,0E0,2.5781952E1,1.1614914E1,1.4073513E1,0E0,0E0,0E0,0E0,0E0,0E0],"parents":[2147483647,0,0,1,1,3,3,4,4,6,6,7,7,8,8],"right_children":[2,4,-1,6,8,-1,10,12,14,-1,-1,-1,-1,-1,-1],"split_conditions":[1E0,1.83E2,6.0248625E-2,2E0,1E-45,-6.0179334E-2,1E-45,2.3E1,1.8E1,-1.179823E-2,-3.4422554E-2,1.7158236E-2,-6.8521865E-2,-1.7455405E-2,-3.6041022E-3],"split_indices":[5,4,0,4,6,0,6,0,0,0,0,0,0,0,0],"split_type":[0,0,0,0,1,0,1,0,0,0,0,0,0,0,0],"sum_hessian":[1.9898865E3,1.5031217E3,4.8676477E2,6.8202997E2,8.2109174E2,6.2010033E1,6.2001996E2,7.689317E1,7.4419855E2,1.7790349E2,4.421165E2,7.369212E1,3.2010462E0,4.1525266E2,3.289459E2],"tree_param":{"num_deleted":"0","num_feature":"7","num_nodes":"15","size_leaf_vector":"1"}},{"base_weights":[-6.4173792E-3,-3.7977073E-1,5.9635308E-2,-7.9310775E-1,-2.7206597E-1,-5.9482824E-2,-6.9483113E-1,-2.275564E-2,-3.603064E-1,-2.153345E-2,-4.3044373E-2,-1.422015E-2,7.426727E-3,-2.7402446E-2,-1.4333864E-2],"categories":[1,2,7,13,7,10,13,15],"categories_nodes":[4,6],"categories_segments":[0,4],"categories_sizes":[4,4],"default_left":[0,0,0,0,1,0,1,0,0,0,0,0,0,0,0],"id":23,"left_children":[1,3,-1,5,7,-1,9,11,13,-1,-1,-1,-1,-1,-1],"loss_changes":[8.744775E2,6.6094315E1,0E0,1.1152176E1,2.6019714E1,0E0,1.0539993E1,1.3951533E1,1.1921326E1,0E0,0E0,0E0,0E0,0E0,0E0],"parents":[2147483647,0,0,1,1,3,3,4,4,6,6,7,7,8,8],"right_children":[2,4,-1,6,8,-1,10,12,14,-1,-1,-1,-1,-1,-1],"split_conditions":[1E0,8E0,5.9635308E-2,2E0,1E-45,-5.9482824E-2,1E-45,3E0,1.83E2,-2.153345E-2,-4.3044373E-2,-1.422015E-2,7.426727E-3,-2.7402446E-2,-1.4333864E-2],"split_indices":[5,4,0,4,6,0,6,1,4,0,0,0,0,0,0],"split_type":[0,0,0,0,1,0,1,0,0,0,0,0,0,0,0],"sum_hessian":[1.9512688E3,1.4884999E3,4.627689E2,3.06373E2,1.182127E3,5.8642746E1,2.4773022E2,3.0935312E2,8.727738E2,9.70063E1,1.5072392E2,1.2213318E2,1.8721996E2,2.4404768E2,6.2872614E2],"tree_param":{"num_deleted":"0","num_feature":"7","num_nodes":"15","size_leaf_vector":"1"}},{"base_weights":[-6.0357326E-3,-5.82473E-1,1.1551632E-1,-5.8869988E-2,-4.5383206E-1,5.730019E-1,2.3130858E-3,-8.501661E-2,-6.608958E-1,-2.8946647E-2,6.224834E-1,-1.2317303E-1,3.4282258E-1,-4.218272E-4,-3.7715737E-2,-2.0904047E-2,-3.662535E-2,5.337402E-2,-9.846675E-3,3.331048E-2,5.3218886E-4,-1.9783508E-2,-1.140017E-3,1.7919298E-2,-1.6129917E-2],"categories":[1,2,3,4,5,7,8,10,11,13,14,5,13,15,13,0,2,3,4,6,7,8],"categories_nodes":[2,4,8,12],"categories_segments":[0,11,14,15],"categories_sizes":[11,3,1,7],"default_left":[0,0,1,0,1,0,0,0,1,0,0,0,1,0,0,0,0,0,0,0,0,0,0,0,0],"id":24,"left_children":[1,3,5,-1,7,9,11,13,15,17,19,21,23,-1,-1,-1,-1,-1,-1,-1,-1,-1,-1,-1,-1],"loss_changes":[1.343818E2,2.5026772E1,8.2029495E1,0E0,2.103984E1,9.376305E0,5.4340622E1,5.1433687E0,2.7674408E0,4.7818856E0,7.7613144E0,2.540837E1,3.6622086E0,0E0,0E0,0E0,0E0,0E0,0E0,0E0,0E0,0E0,0E0,0E0,0E0],"parents":[2147483647,0,0,1,1,2,2,4,4,5,5,6,6,7,7,8,8,9,9,10,10,11,11,12,12],"right_children":[2,4,6,-1,8,10,12,14,16,18,20,22,24,-1,-1,-1,-1,-1,-1,-1,-1,-1,-1,-1,-1],"split_conditions":[8E0,2E0,1E-45,-5.8869988E-2,1E-45,1E0,6.07E2,6E0,1E-45,9E0,6E0,9.8E1,1E-45,-4.218272E-4,-3.7715737E-2,-2.0904047E-2,-3.662535E-2,5.337402E-2,-9.846675E-3,3.331048E-2,5.3218886E-4,-1.9783508E-2,-1.140017E-3,1.7919298E-2,-1.6129917E-2],"split_indices":[4,4,6,0,6,1,4,1,6,4,1,4,6,0,0,0,0,0,0,0,0,0,0,0,0],"split_type":[0,0,1,0,1,0,0,0,1,0,0,0,1,0,0,0,0,0,0,0,0,0,0,0,0],"sum_hessian":[1.9159404E3,3.32993E2,1.5829475E3,5.7752407E1,2.752406E2,3.1319162E2,1.2697559E3,9.9473E1,1.7576761E2,2.3820995E1,2.8937064E2,9.282947E2,3.4146112E2,9.016865E1,9.304353E0,4.1588867E1,1.3417874E2,2.4534059E0,2.1367588E1,2.699867E2,1.9383936E1,2.4909535E2,6.7919934E2,3.3410815E2,7.352965E0],"tree_param":{"num_deleted":"0","num_feature":"7","num_nodes":"25","size_leaf_vector":"1"}},{"base_weights":[4.864697E-3,-3.4487125E-1,5.8989402E-2,-5.754736E-1,-2.2788246E-1,-3.2560125E-1,-6.716527E-1,2.1348123E-2,-3.0137682E-1,-1.7852223E-2,1.7965147E-2,-3.941537E-2,-3.047737E-2,-1.9570438E-2,3.7585653E-3,-1.8711068E-2,-1.0198761E-2],"categories":[1,2,5,7,10,13,0,1,3,6,7,13],"categories_nodes":[3,4],"categories_segments":[0,6],"categories_sizes":[6,6],"default_left":[0,0,0,1,1,0,0,0,0,0,0,0,0,0,0,0,0],"id":25,"left_children":[1,3,-1,5,7,9,11,13,15,-1,-1,-1,-1,-1,-1,-1,-1],"loss_changes":[7.8604193E2,3.9637787E1,0E0,1.1689224E1,1.7950497E1,3.13583E0,2.104721E0,5.0063896E0,5.291954E0,0E0,0E0,0E0,0E0,0E0,0E0,0E0,0E0],"parents":[2147483647,0,0,1,1,3,3,4,4,5,5,6,6,7,7,8,8],"right_children":[2,4,-1,6,8,10,12,14,16,-1,-1,-1,-1,-1,-1,-1,-1],"split_conditions":[1E0,2E0,5.8989402E-2,1E-45,1E-45,2.3E1,6E0,1E0,1.7E1,-1.7852223E-2,1.7965147E-2,-3.941537E-2,-3.047737E-2,-1.9570438E-2,3.7585653E-3,-1.8711068E-2,-1.0198761E-2],"split_indices":[5,3,0,6,6,0,0,1,0,0,0,0,0,0,0,0,0],"split_type":[0,0,0,1,1,0,0,0,0,0,0,0,0,0,0,0,0],"sum_hessian":[1.9109259E3,1.47313E3,4.377958E2,4.944925E2,9.786376E2,1.3865453E2,3.5583795E2,2.2302736E2,7.5561017E2,1.3302614E2,5.628393E0,1.1956372E2,2.3627425E2,2.5004192E1,1.9802316E2,4.3067538E2,3.249348E2],"tree_param":{"num_deleted":"0","num_feature":"7","num_nodes":"17","size_leaf_vector":"1"}},{"base_weights":[1.0558024E-2,-5.391972E-1,1.2525803E-1,-5.7997294E-2,-4.118476E-1,4.8816445E-1,2.4926905E-2,-4.436264E-2,-6.314063E-1,-1.3004194E-1,5.4521143E-1,-1.3024727E-1,2.3257811E-1,3.924823E-2,-4.0826886E-3,-2.0776106E-2,-3.513446E-2,6.1818816E-2,-1.5539737E-2,3.5183992E-2,1.824112E-2,-1.4828831E-2,-9.792839E-4,5.525713E-3,1.529544E-2],"categories":[1,2,4,5,7,8,11,13,14,5,7,13,15,0,1,2,3,4,5,6,7,10,11,12,13,14,15,13],"categories_nodes":[2,4,7,8],"categories_segments":[0,9,13,27],"categories_sizes":[9,4,14,1],"default_left":[0,0,1,0,1,0,0,1,1,0,0,0,0,0,0,0,0,0,0,0,0,0,0,0,0],"id":26,"left_children":[1,3,5,-1,7,9,11,13,15,17,19,21,23,-1,-1,-1,-1,-1,-1,-1,-1,-1,-1,-1,-1],"loss_changes":[1.1933556E2,2.5348022E1,5.6997734E1,0E0,2.196902E1,1.2028633E1,3.95886E1,3.2508051E0,2.3331757E0,7.658533E0,8.622444E0,1.2938607E1,4.669195E0,0E0,0E0,0E0,0E0,0E0,0E0,0E0,0E0,0E0,0E0,0E0,0E0],"parents":[2147483647,0,0,1,1,2,2,4,4,5,5,6,6,7,7,8,8,9,9,10,10,11,11,12,12],"right_children":[2,4,6,-1,8,10,12,14,16,18,20,22,24,-1,-1,-1,-1,-1,-1,-1,-1,-1,-1,-1,-1],"split_conditions":[8E0,2E0,1E-45,-5.7997294E-2,1E-45,1E0,3.79E2,1E-45,1E-45,9E0,8E0,1.72E2,6.07E2,3.924823E-2,-4.0826886E-3,-2.0776106E-2,-3.513446E-2,6.1818816E-2,-1.5539737E-2,3.5183992E-2,1.824112E-2,-1.4828831E-2,-9.792839E-4,5.525713E-3,1.529544E-2],"split_indices":[4,4,6,0,6,1,4,6,6,4,0,4,4,0,0,0,0,0,0,0,0,0,0,0,0],"split_type":[0,0,1,0,1,0,0,1,1,0,0,0,0,0,0,0,0,0,0,0,0,0,0,0,0],"sum_hessian":[1.890434E3,3.2569278E2,1.5647412E3,5.4062763E1,2.7163004E2,3.38065E2,1.2266761E3,1.0204124E2,1.6958879E2,2.845242E1,3.096126E2,7.022612E2,5.244149E2,3.5281496E0,9.8513084E1,4.3791878E1,1.2579691E2,2.6417446E0,2.5810675E1,1.632764E2,1.463362E2,2.7989154E2,4.2236966E2,1.9775143E2,3.266635E2],"tree_param":{"num_deleted":"0","num_feature":"7","num_nodes":"25","size_leaf_vector":"1"}},{"base_weights":[-9.460238E-3,-3.510796E-1,5.839481E-2,-6.1037874E-1,-2.2280546E-1,-5.7451703E-2,-5.424413E-1,6.2487456E-3,-3.005659E-1,-1.118362E-2,-3.3521537E-2,1.7363554E-2,-3.6123847E-3,-2.3697173E-2,-1.0453204E-2],"categories":[0,1,7,8,9,10,13,1,2,5,7,10,13,0,1,2,4,5,6,12],"categories_nodes":[4,6,7],"categories_segments":[0,7,13],"categories_sizes":[7,6,7],"default_left":[0,0,0,0,1,0,1,1,0,0,0,0,0,0,0],"id":27,"left_children":[1,3,-1,5,7,-1,9,11,13,-1,-1,-1,-1,-1,-1],"loss_changes":[7.540916E2,4.819934E1,0E0,1.6956375E1,1.7346767E1,0E0,1.733152E1,6.658096E0,1.1434692E1,0E0,0E0,0E0,0E0,0E0,0E0],"parents":[2147483647,0,0,1,1,3,3,4,4,6,6,7,7,8,8],"right_children":[2,4,-1,6,8,-1,10,12,14,-1,-1,-1,-1,-1,-1],"split_conditions":[1E0,4.7E1,5.839481E-2,2E0,1E-45,-5.7451703E-2,1E-45,1E-45,2.57E2,-1.118362E-2,-3.3521537E-2,1.7363554E-2,-3.6123847E-3,-2.3697173E-2,-1.0453204E-2],"split_indices":[5,4,0,4,6,0,6,6,4,0,0,0,0,0,0],"split_type":[0,0,0,0,1,0,1,1,0,0,0,0,0,0,0],"sum_hessian":[1.8728615E3,1.4521968E3,4.206647E2,4.7938602E2,9.728107E2,5.1908253E1,4.2747775E2,2.4678651E2,7.2602423E2,1.23252975E2,3.042248E2,4.5535713E1,2.012508E2,2.493592E2,4.76665E2],"tree_param":{"num_deleted":"0","num_feature":"7","num_nodes":"15","size_leaf_vector":"1"}},{"base_weights":[-3.3574647E-3,-3.200601E-1,5.7895433E-2,-5.2457786E-1,-2.1780702E-1,-2.6399598E-1,-6.3233703E-1,-2.1603586E-2,-2.8893834E-1,-1.5102009E-2,2.431315E-2,-3.0309116E-2,-5.4395504E-2,1.2267502E-2,-4.1580712E-3,-8.999661E-3,-1.7809415E-2],"categories":[1,2,5,7,10,13,1,6,7,8,13,0,1,2,4,5,10,12],"categories_nodes":[3,4,7],"categories_segments":[0,6,11],"categories_sizes":[6,5,7],"default_left":[0,0,0,1,1,0,0,1,0,0,0,0,0,0,0,0,0],"id":28,"left_children":[1,3,-1,5,7,9,11,13,15,-1,-1,-1,-1,-1,-1,-1,-1],"loss_changes":[6.770268E2,3.0133545E1,0E0,1.3350891E1,1.3475334E1,4.215747E0,3.3899841E0,4.2619076E0,5.129551E0,0E0,0E0,0E0,0E0,0E0,0E0,0E0,0E0],"parents":[2147483647,0,0,1,1,3,3,4,4,5,5,6,6,7,7,8,8],"right_children":[2,4,-1,6,8,10,12,14,16,-1,-1,-1,-1,-1,-1,-1,-1],"split_conditions":[1E0,2E0,5.7895433E-2,1E-45,1E-45,2.3E1,1E0,1E-45,6E0,-1.5102009E-2,2.431315E-2,-3.0309116E-2,-5.4395504E-2,1.2267502E-2,-4.1580712E-3,-8.999661E-3,-1.7809415E-2],"split_indices":[5,3,0,6,6,0,2,6,0,0,0,0,0,0,0,0,0],"split_type":[0,0,0,1,1,0,0,1,0,0,0,0,0,0,0,0,0],"sum_hessian":[1.8388595E3,1.4453936E3,3.93466E2,4.8040295E2,9.649906E2,1.4155249E2,3.3885046E2,2.5710754E2,7.07883E2,1.3528963E2,6.2628617E0,3.2265714E2,1.6193336E1,4.761841E1,2.0948915E2,2.7158728E2,4.3629575E2],"tree_param":{"num_deleted":"0","num_feature":"7","num_nodes":"17","size_leaf_vector":"1"}},{"base_weights":[1.3159093E-2,-4.8312935E-1,1.13854684E-1,-5.6710232E-2,-3.5691574E-1,4.6207392E-1,3.0493278E-2,-4.1364193E-2,-5.4011375E-1,6.088582E-1,3.0313358E-1,-5.9104953E-2,2.7779272E-1,-1.9046905E-2,3.8545714E-3,-2.2836128E-2,-3.5616644E-2,1.3776885E-2,3.890844E-2,3.323788E-2,6.3143536E-3,-1.2335314E-2,6.3775363E-4,3.131671E-2,1.1098298E-2],"categories":[1,2,3,4,5,7,8,10,11,13,14,5,7,13,15,0,2,3,4,6,7,8,9,11,12,13,14,15],"categories_nodes":[2,4,12],"categories_segments":[0,11,15],"categories_sizes":[11,4,13],"default_left":[0,0,1,0,1,0,0,0,0,0,0,0,1,0,0,0,0,0,0,0,0,0,0,0,0],"id":29,"left_children":[1,3,5,-1,7,9,11,13,15,17,19,21,23,-1,-1,-1,-1,-1,-1,-1,-1,-1,-1,-1,-1],"loss_changes":[9.1068275E1,2.4854103E1,4.395844E1,0E0,1.4945927E1,6.640007E0,2.712191E1,3.898608E0,2.026184E0,8.312092E0,9.025236E0,1.2119773E1,6.1948166E0,0E0,0E0,0E0,0E0,0E0,0E0,0E0,0E0,0E0,0E0,0E0,0E0],"parents":[2147483647,0,0,1,1,2,2,4,4,5,5,6,6,7,7,8,8,9,9,10,10,11,11,12,12],"right_children":[2,4,6,-1,8,10,12,14,16,18,20,22,24,-1,-1,-1,-1,-1,-1,-1,-1,-1,-1,-1,-1],"split_conditions":[8E0,2E0,1E-45,-5.6710232E-2,1E-45,8E0,6.07E2,3E0,2E1,5E0,9.4E1,1.66E2,1E-45,-1.9046905E-2,3.8545714E-3,-2.2836128E-2,-3.5616644E-2,1.3776885E-2,3.890844E-2,3.323788E-2,6.3143536E-3,-1.2335314E-2,6.3775363E-4,3.131671E-2,1.1098298E-2],"split_indices":[4,4,6,0,6,0,4,4,0,0,4,4,6,0,0,0,0,0,0,0,0,0,0,0,0],"split_type":[0,0,1,0,1,0,0,0,0,0,0,0,1,0,0,0,0,0,0,0,0,0,0,0,0],"sum_hessian":[1.8202103E3,3.0638126E2,1.5138291E3,4.845237E1,2.579289E2,2.915242E2,1.2223048E3,9.51913E1,1.6273758E2,1.5008617E2,1.4143803E2,8.977904E2,3.2451443E2,2.4045311E1,7.114599E1,1.1210606E2,5.063153E1,5.144135E1,9.864481E1,4.554551E1,9.589253E1,2.4797679E2,6.4981366E2,4.3391365E1,2.8112308E2],"tree_param":{"num_deleted":"0","num_feature":"7","num_nodes":"25","size_leaf_vector":"1"}},{"base_weights":[-7.989666E-4,-3.049279E-1,5.739913E-2,-5.142974E-1,-2.0507616E-1,-2.439062E-1,-5.810872E-1,1.5600443E-2,-2.721831E-1,-2.0605555E-2,-1.9271318E-3,-2.810666E-2,-4.6978775E-2,9.534108E-3,-5.98891E-3,-1.8447785E-2,-6.938354E-3],"categories":[0,1,2,5,7,13,15,0,1,6,7,8,13],"categories_nodes":[3,4],"categories_segments":[0,7],"categories_sizes":[7,6],"default_left":[0,0,0,1,1,0,0,0,0,0,0,0,0,0,0,0,0],"id":30,"left_children":[1,3,-1,5,7,9,11,13,15,-1,-1,-1,-1,-1,-1,-1,-1],"loss_changes":[6.355735E2,2.9964813E1,0E0,8.234261E0,1.4451237E1,3.2171812E0,1.9941101E0,5.43721E0,9.607891E0,0E0,0E0,0E0,0E0,0E0,0E0,0E0,0E0],"parents":[2147483647,0,0,1,1,3,3,4,4,5,5,6,6,7,7,8,8],"right_children":[2,4,-1,6,8,10,12,14,16,-1,-1,-1,-1,-1,-1,-1,-1],"split_conditions":[1E0,2E0,5.739913E-2,1E-45,1E-45,4E0,1E0,8E0,1.8E1,-2.0605555E-2,-1.9271318E-3,-2.810666E-2,-4.6978775E-2,9.534108E-3,-5.98891E-3,-1.8447785E-2,-6.938354E-3],"split_indices":[5,3,0,6,6,1,2,0,0,0,0,0,0,0,0,0,0],"split_type":[0,0,0,1,1,0,0,0,0,0,0,0,0,0,0,0,0],"sum_hessian":[1.8171567E3,1.4373632E3,3.7979358E2,4.6280377E2,9.745593E2,9.259494E1,3.7020883E2,2.2743205E2,7.471273E2,5.034922E1,4.224572E1,3.540572E2,1.6151648E1,9.899537E1,1.2843668E2,4.320075E2,3.1511978E2],"tree_param":{"num_deleted":"0","num_feature":"7","num_nodes":"17","size_leaf_vector":"1"}},{"base_weights":[-1.3175956E-2,-3.1108987E-1,5.6974005E-2,-6.523442E-1,-2.3073038E-1,-5.6051373E-2,-5.517204E-1,-3.211558E-1,-1.4260986E-1,-2.5505725E-2,-4.23658E-2,-2.8402647E-2,-1.3199552E-2,-1.1082802E-2,-1.8494682E-3],"categories":[],"categories_nodes":[],"categories_segments":[],"categories_sizes":[],"default_left":[0,0,0,0,0,0,0,0,0,0,0,0,0,0,0],"id":31,"left_children":[1,3,-1,5,7,-1,9,11,13,-1,-1,-1,-1,-1,-1],"loss_changes":[6.176518E2,3.9043427E1,0E0,1.2202843E1,9.184479E0,0E0,2.3445587E0,7.907749E0,4.9047976E0,0E0,0E0,0E0,0E0,0E0,0E0],"parents":[2147483647,0,0,1,1,3,3,4,4,6,6,7,7,8,8],"right_children":[2,4,-1,6,8,-1,10,12,14,-1,-1,-1,-1,-1,-1],"split_conditions":[1E0,8E0,5.6974005E-2,2E0,2.57E2,-5.6051373E-2,6E0,4E0,1.8E1,-2.5505725E-2,-4.23658E-2,-2.8402647E-2,-1.3199552E-2,-1.1082802E-2,-1.8494682E-3],"split_indices":[5,4,0,4,4,0,1,0,0,0,0,0,0,0,0],"split_type":[0,0,0,0,0,0,0,0,0,0,0,0,0,0,0],"sum_hessian":[1.7966445E3,1.428235E3,3.6840955E2,2.7086456E2,1.1573704E3,4.6082394E1,2.2478215E2,5.699098E2,5.8746063E2,1.994366E2,2.534556E1,1.05464905E2,4.6444485E2,3.35371E2,2.5208963E2],"tree_param":{"num_deleted":"0","num_feature":"7","num_nodes":"15","size_leaf_vector":"1"}},{"base_weights":[-7.545918E-3,-4.423402E-1,7.8305304E-2,-5.5643003E-2,-3.140555E-1,4.2109507E-1,-4.2363005E-3,9.278389E-2,-4.6954936E-1,-2.294872E-1,4.7894338E-1,-1.3098031E-1,1.6840725E-1,-6.1327904E-2,1.0691777E-2,-1.4022052E-2,-2.8607873E-2,5.968959E-2,-2.3305846E-2,3.1534392E-2,1.5216163E-2,-1.4056838E-2,-2.875449E-3,2.7560448E-2,5.820455E-3],"categories":[1,2,4,5,7,8,10,11,13,14,0,2,3,4,5,7,11,13,15,13,0,2,3,4,6,7,8,9,11,12,13,14,15],"categories_nodes":[2,4,8,12],"categories_segments":[0,10,19,20],"categories_sizes":[10,9,1,13],"default_left":[0,0,1,0,1,0,0,0,1,0,0,0,1,0,0,0,0,0,0,0,0,0,0,0,0],"id":32,"left_children":[1,3,5,-1,7,9,11,13,15,17,19,21,23,-1,-1,-1,-1,-1,-1,-1,-1,-1,-1,-1,-1],"loss_changes":[6.561329E1,2.4581993E1,4.1537914E1,0E0,1.5522787E1,1.0831985E1,2.593202E1,1.1201525E1,3.2778091E0,8.619128E0,6.749275E0,7.5230303E0,9.922564E0,0E0,0E0,0E0,0E0,0E0,0E0,0E0,0E0,0E0,0E0,0E0,0E0],"parents":[2147483647,0,0,1,1,2,2,4,4,5,5,6,6,7,7,8,8,9,9,10,10,11,11,12,12],"right_children":[2,4,6,-1,8,10,12,14,16,18,20,22,24,-1,-1,-1,-1,-1,-1,-1,-1,-1,-1,-1,-1],"split_conditions":[8E0,2E0,1E-45,-5.5643003E-2,1E-45,1E0,3.79E2,3E0,1E-45,9E0,8E0,9.8E1,1E-45,-6.1327904E-2,1.0691777E-2,-1.4022052E-2,-2.8607873E-2,5.968959E-2,-2.3305846E-2,3.1534392E-2,1.5216163E-2,-1.4056838E-2,-2.875449E-3,2.7560448E-2,5.820455E-3],"split_indices":[4,4,6,0,6,1,4,0,6,4,0,4,6,0,0,0,0,0,0,0,0,0,0,0,0],"split_type":[0,0,1,0,1,0,0,0,1,0,0,0,1,0,0,0,0,0,0,0,0,0,0,0,0],"sum_hessian":[1.7558398E3,2.888424E2,1.4669974E3,4.5154327E1,2.4368808E2,2.8389572E2,1.1831017E3,6.749504E1,1.7619304E2,2.2939783E1,2.6095593E2,6.823815E2,5.0072018E2,4.904826E0,6.2590218E1,6.3287086E1,1.1290595E2,2.6935651E0,2.0246218E1,1.3822604E2,1.227299E2,2.2326302E2,4.5911847E2,5.873347E1,4.419867E2],"tree_param":{"num_deleted":"0","num_feature":"7","num_nodes":"25","size_leaf_vector":"1"}},{"base_weights":[-2.30631E-3,-2.8097647E-1,5.654192E-2,-5.5201914E-2,-2.547017E-1,-4.09786E-1,-1.7954032E-1,-4.6584746E-3,-2.6895434E-2,4.6116053E-3,-1.1152462E-2],"categories":[1,2,5,7,10,13,0,1,4,5,6,7,8,9,13],"categories_nodes":[5,6],"categories_segments":[0,6],"categories_sizes":[6,9],"default_left":[0,0,0,0,0,1,1,0,0,0,0],"id":33,"left_children":[1,3,-1,-1,5,7,9,-1,-1,-1,-1],"loss_changes":[5.5759564E2,3.036811E1,0E0,0E0,1.5950569E1,1.8122627E1,1.099057E1,0E0,0E0,0E0,0E0],"parents":[2147483647,0,0,1,1,4,4,5,5,6,6],"right_children":[2,4,-1,-1,6,8,10,-1,-1,-1,-1],"split_conditions":[1E0,2E0,5.654192E-2,-5.5201914E-2,9.4E1,1E-45,1E-45,-4.6584746E-3,-2.6895434E-2,4.6116053E-3,-1.1152462E-2],"split_indices":[5,4,0,0,4,6,6,0,0,0,0],"split_type":[0,0,0,0,0,1,1,0,0,0,0],"sum_hessian":[1.763802E3,1.4162587E3,3.4754333E2,4.254394E1,1.3737147E3,4.469821E2,9.2673267E2,1.2926643E2,3.1771564E2,1.2773486E2,7.989978E2],"tree_param":{"num_deleted":"0","num_feature":"7","num_nodes":"11","size_leaf_vector":"1"}},{"base_weights":[2.2938575E-3,-2.6633674E-1,5.6161173E-2,-5.782019E-1,-1.9663814E-1,-5.480277E-2,-4.7481048E-1,-2.0722745E-2,-2.5171965E-1,-9.107694E-3,-3.2818936E-2,3.787997E-3,-1.3223084E-2,-1.7081544E-2,3.3554595E-4],"categories":[1,5,7,8,9,13,0,7,13,15],"categories_nodes":[4,6],"categories_segments":[0,6],"categories_sizes":[6,4],"default_left":[0,0,0,0,1,0,1,0,0,0,0,0,0,0,0],"id":34,"left_children":[1,3,-1,5,7,-1,9,11,13,-1,-1,-1,-1,-1,-1],"loss_changes":[5.2200336E2,3.02835E1,0E0,1.3128998E1,1.1084686E1,0E0,1.1266026E1,6.4635453E0,2.0252449E1,0E0,0E0,0E0,0E0,0E0,0E0],"parents":[2147483647,0,0,1,1,3,3,4,4,6,6,7,7,8,8],"right_children":[2,4,-1,6,8,-1,10,12,14,-1,-1,-1,-1,-1,-1],"split_conditions":[1E0,8E0,5.6161173E-2,2E0,1E-45,-5.480277E-2,1E-45,2.1E1,6.07E2,-9.107694E-3,-3.2818936E-2,3.787997E-3,-1.3223084E-2,-1.7081544E-2,3.3554595E-4],"split_indices":[5,4,0,4,6,0,6,0,4,0,0,0,0,0,0],"split_type":[0,0,0,0,1,0,1,0,0,0,0,0,0,0,0],"sum_hessian":[1.731569E3,1.397436E3,3.3413293E2,2.539309E2,1.1435052E3,4.066289E1,2.13268E2,2.7299854E2,8.7050665E2,8.2421684E1,1.3084631E2,1.9607323E2,7.6925316E1,6.455796E2,2.249271E2],"tree_param":{"num_deleted":"0","num_feature":"7","num_nodes":"15","size_leaf_vector":"1"}},{"base_weights":[2.456037E-3,-2.502726E-1,5.5809677E-2,-5.6715447E-1,-1.7949924E-1,-5.4455366E-2,-4.6604776E-1,-1.5560228E-2,-2.3876576E-1,-1.1515696E-2,-3.3478234E-2,-7.210027E-3,1.0814065E-2,-2.0155026E-2,-8.999202E-3],"categories":[0,1,3,7,8,9,10,13,0,1,13],"categories_nodes":[4,6],"categories_segments":[0,8],"categories_sizes":[8,3],"default_left":[0,0,0,0,1,0,1,0,0,0,0,0,0,0,0],"id":35,"left_children":[1,3,-1,5,7,-1,9,11,13,-1,-1,-1,-1,-1,-1],"loss_changes":[4.8513623E2,3.1403236E1,0E0,1.300267E1,1.1167725E1,0E0,1.0218727E1,9.168309E0,8.084457E0,0E0,0E0,0E0,0E0,0E0,0E0],"parents":[2147483647,0,0,1,1,3,3,4,4,6,6,7,7,8,8],"right_children":[2,4,-1,6,8,-1,10,12,14,-1,-1,-1,-1,-1,-1],"split_conditions":[1E0,8E0,5.5809677E-2,2E0,1E-45,-5.4455366E-2,1E-45,2.57E2,1.83E2,-1.1515696E-2,-3.3478234E-2,-7.210027E-3,1.0814065E-2,-2.0155026E-2,-8.999202E-3],"split_indices":[5,4,0,4,6,0,6,4,4,0,0,0,0,0,0],"split_type":[0,0,0,0,1,0,1,0,0,0,0,0,0,0,0],"sum_hessian":[1.7215674E3,1.4037946E3,3.177729E2,2.5500716E2,1.1487874E3,3.9795456E1,2.152117E2,3.0536636E2,8.43421E2,1.0070113E2,1.1451057E2,1.966375E2,1.08728874E2,2.2066243E2,6.2275854E2],"tree_param":{"num_deleted":"0","num_feature":"7","num_nodes":"15","size_leaf_vector":"1"}},{"base_weights":[7.846925E-3,-2.3623542E-1,5.548454E-2,-4.1701645E-1,-1.0473047E-1,-5.4087587E-2,-3.6891598E-1,1.1874894E-1,-1.5487856E-1,-6.2752343E-3,-2.3587303E-2,-5.5271774E-3,1.31576285E-2,-1.3805114E-2,-2.0719704E-4],"categories":[0,2,3,4,7,8,12,13,1,2,5,10,13],"categories_nodes":[4,6],"categories_segments":[0,8],"categories_sizes":[8,5],"default_left":[0,0,0,0,1,0,1,0,0,0,0,0,0,0,0],"id":36,"left_children":[1,3,-1,5,7,-1,9,11,13,-1,-1,-1,-1,-1,-1],"loss_changes":[4.5621246E2,3.2971428E1,0E0,1.828865E1,9.043053E0,0E0,1.3620796E1,4.934372E0,1.2024372E1,0E0,0E0,0E0,0E0,0E0,0E0],"parents":[2147483647,0,0,1,1,3,3,4,4,6,6,7,7,8,8],"right_children":[2,4,-1,6,8,-1,10,12,14,-1,-1,-1,-1,-1,-1],"split_conditions":[1E0,1.83E2,5.548454E-2,2E0,1E-45,-5.4087587E-2,1E-45,3E0,1.8E1,-6.2752343E-3,-2.3587303E-2,-5.5271774E-3,1.31576285E-2,-1.3805114E-2,-2.0719704E-4],"split_indices":[5,4,0,4,6,0,6,1,0,0,0,0,0,0,0],"split_type":[0,0,0,0,1,0,1,0,0,0,0,0,0,0,0],"sum_hessian":[1.6943567E3,1.38773E3,3.0662674E2,5.834648E2,8.0426526E2,3.7920757E1,5.45544E2,1.4714807E2,6.571171E2,1.6268034E2,3.8286365E2,5.6951557E1,9.019652E1,3.6375037E2,2.933668E2],"tree_param":{"num_deleted":"0","num_feature":"7","num_nodes":"15","size_leaf_vector":"1"}},{"base_weights":[1.0161523E-2,-2.218546E-1,5.5167854E-2,-5.2662283E-1,-1.559365E-1,-5.3691853E-2,-4.2961374E-1,-2.4135265E-1,-7.424625E-2,-3.6094E-2,-1.9288925E-2,-2.5364796E-2,-9.065115E-3,2.079975E-3,-7.018016E-3],"categories":[],"categories_nodes":[],"categories_segments":[],"categories_sizes":[],"default_left":[0,0,0,0,0,0,0,0,0,0,0,0,0,0,0],"id":37,"left_children":[1,3,-1,5,7,-1,9,11,13,-1,-1,-1,-1,-1,-1],"loss_changes":[4.2283038E2,2.7545837E1,0E0,1.2498344E1,7.88146E0,0E0,2.3996048E0,8.739143E0,4.448942E0,0E0,0E0,0E0,0E0,0E0,0E0],"parents":[2147483647,0,0,1,1,3,3,4,4,6,6,7,7,8,8],"right_children":[2,4,-1,6,8,-1,10,12,14,-1,-1,-1,-1,-1,-1],"split_conditions":[1E0,8E0,5.5167854E-2,2E0,2.57E2,-5.3691853E-2,3E0,4E0,6E0,-3.6094E-2,-1.9288925E-2,-2.5364796E-2,-9.065115E-3,2.079975E-3,-7.018016E-3],"split_indices":[5,4,0,4,4,0,0,0,0,0,0,0,0,0,0],"split_type":[0,0,0,0,0,0,0,0,0,0,0,0,0,0,0],"sum_hessian":[1.665091E3,1.3742268E3,2.908642E2,2.4313203E2,1.1310947E3,3.509526E1,2.0803677E2,5.519821E2,5.791127E2,2.5115341E1,1.8292143E2,1.003071E2,4.51675E2,2.1055205E2,3.685606E2],"tree_param":{"num_deleted":"0","num_feature":"7","num_nodes":"15","size_leaf_vector":"1"}},{"base_weights":[-2.2145961E-3,-2.2814414E-1,5.4875482E-2,-5.5131996E-1,-1.6006787E-1,-5.341036E-2,-4.5759758E-1,1.145517E-2,-2.1481295E-1,-8.493143E-3,-3.1054223E-2,2.7300024E-3,-1.9032374E-2,-1.47611E-2,3.5841798E-4],"categories":[1,5,7,8,13,0,7,10,13,15],"categories_nodes":[4,6],"categories_segments":[0,5],"categories_sizes":[5,5],"default_left":[0,0,0,0,1,0,1,0,0,0,0,0,0,0,0],"id":38,"left_children":[1,3,-1,5,7,-1,9,11,13,-1,-1,-1,-1,-1,-1],"loss_changes":[4.0912665E2,2.996466E1,0E0,1.1005486E1,1.0610714E1,0E0,9.425018E0,4.66094E0,1.5289112E1,0E0,0E0,0E0,0E0,0E0,0E0],"parents":[2147483647,0,0,1,1,3,3,4,4,6,6,7,7,8,8],"right_children":[2,4,-1,6,8,-1,10,12,14,-1,-1,-1,-1,-1,-1],"split_conditions":[1E0,8E0,5.4875482E-2,2E0,1E-45,-5.341036E-2,1E-45,6.07E2,6.07E2,-8.493143E-3,-3.1054223E-2,2.7300024E-3,-1.9032374E-2,-1.47611E-2,3.5841798E-4],"split_indices":[5,4,0,4,6,0,6,4,4,0,0,0,0,0,0],"split_type":[0,0,0,0,1,0,1,0,0,0,0,0,0,0,0],"sum_hessian":[1.6446407E3,1.3650042E3,2.7963663E2,2.3627005E2,1.1287341E3,3.4669136E1,2.016009E2,2.7328604E2,8.5544806E2,7.3782936E1,1.2781798E2,2.4697137E2,2.6314657E1,6.277325E2,2.277156E2],"tree_param":{"num_deleted":"0","num_feature":"7","num_nodes":"15","size_leaf_vector":"1"}},{"base_weights":[2.5392966E-3,-2.1076913E-1,5.459876E-2,-3.5212547E-1,-1.49181E-1,5.741599E-2,-3.9831644E-1,1.4204709E-1,-1.8590309E-1,-2.3809265E-2,3.0715605E-2,-1.8540261E-2,-5.0421096E-2,1.18516525E-2,-3.792062E-2,-1.7479153E-2,-6.0558277E-3],"categories":[0,1,2,3,4,5,7,8,10,11,12,13,14,15,0,1,4,5,6,7,8,9,10,12,13],"categories_nodes":[3,4],"categories_segments":[0,14],"categories_sizes":[14,11],"default_left":[0,0,0,1,1,0,0,0,0,0,0,0,0,0,0,0,0],"id":39,"left_children":[1,3,-1,5,7,9,11,13,15,-1,-1,-1,-1,-1,-1,-1,-1],"loss_changes":[3.7735663E2,1.1769718E1,0E0,7.8048096E0,1.0160448E1,1.2942236E1,5.8330917E0,9.303641E0,8.885597E0,0E0,0E0,0E0,0E0,0E0,0E0,0E0,0E0],"parents":[2147483647,0,0,1,1,3,3,4,4,5,5,6,6,7,7,8,8],"right_children":[2,4,-1,6,8,10,12,14,16,-1,-1,-1,-1,-1,-1,-1,-1],"split_conditions":[1E0,2E0,5.459876E-2,1E-45,1E-45,4E0,1E0,2.2E1,2E0,-2.3809265E-2,3.0715605E-2,-1.8540261E-2,-5.0421096E-2,1.18516525E-2,-3.792062E-2,-1.7479153E-2,-6.0558277E-3],"split_indices":[5,3,0,6,6,1,2,0,1,0,0,0,0,0,0,0,0],"split_type":[0,0,0,1,1,0,0,0,0,0,0,0,0,0,0,0,0],"sum_hessian":[1.6218461E3,1.3569631E3,2.6488297E2,4.1036984E2,9.4659326E2,4.1568615E1,3.6880124E2,1.05673256E2,8.4092E2,2.1302307E1,2.0266308E1,3.5442697E2,1.4374268E1,9.625632E1,9.416941E0,2.372142E2,6.037058E2],"tree_param":{"num_deleted":"0","num_feature":"7","num_nodes":"17","size_leaf_vector":"1"}},{"base_weights":[1.2782846E-2,-1.9103462E-1,5.4341245E-2,-5.295659E-2,-1.6939977E-1,-3.033409E-1,-7.896846E-2,-1.3080405E-2,-3.1789355E-2,-7.4843923E-3,5.103409E-4],"categories":[],"categories_nodes":[],"categories_segments":[],"categories_sizes":[],"default_left":[0,0,0,0,0,0,0,0,0,0,0],"id":40,"left_children":[1,3,-1,-1,5,7,9,-1,-1,-1,-1],"loss_changes":[3.5475598E2,2.540316E1,0E0,0E0,1.608818E1,7.267002E0,5.0178604E0,0E0,0E0,0E0,0E0],"parents":[2147483647,0,0,1,1,4,4,5,5,6,6],"right_children":[2,4,-1,-1,6,8,10,-1,-1,-1,-1],"split_conditions":[1E0,2E0,5.4341245E-2,-5.295659E-2,1.83E2,6E0,1.8E1,-1.3080405E-2,-3.1789355E-2,-7.4843923E-3,5.103409E-4],"split_indices":[5,4,0,0,4,1,0,0,0,0,0],"split_type":[0,0,0,0,0,0,0,0,0,0,0],"sum_hessian":[1.6186188E3,1.3611416E3,2.5747726E2,3.1931622E1,1.32921E3,5.347773E2,7.944326E2,4.767203E2,5.805701E1,4.4268665E2,3.5174597E2],"tree_param":{"num_deleted":"0","num_feature":"7","num_nodes":"11","size_leaf_vector":"1"}},{"base_weights":[5.8026896E-3,-1.8945512E-1,5.4083426E-2,-5.2710533E-2,-1.680228E-1,1.0771719E-1,-2.1750604E-1,1.6651263E-2,-9.198353E-3,-1.9695448E-2,-7.004071E-3],"categories":[0,1,2,4,5,7,8,10,13],"categories_nodes":[4],"categories_segments":[0],"categories_sizes":[9],"default_left":[0,0,0,0,1,0,0,0,0,0,0],"id":41,"left_children":[1,3,-1,-1,5,7,9,-1,-1,-1,-1],"loss_changes":[3.3703168E2,2.4990654E1,0E0,0E0,1.812006E1,1.3367132E1,1.530764E1,0E0,0E0,0E0,0E0],"parents":[2147483647,0,0,1,1,4,4,5,5,6,6],"right_children":[2,4,-1,-1,6,8,10,-1,-1,-1,-1],"split_conditions":[1E0,2E0,5.4083426E-2,-5.2710533E-2,1E-45,9E0,1.66E2,1.6651263E-2,-9.198353E-3,-1.9695448E-2,-7.004071E-3],"split_indices":[5,4,0,0,6,0,4,0,0,0,0],"split_type":[0,0,0,0,1,0,0,0,0,0,0],"sum_hessian":[1.6023932E3,1.3569463E3,2.454469E2,3.165212E1,1.3252942E3,2.0146658E2,1.1238276E3,1.1358638E2,8.78802E1,3.4155252E2,7.82275E2],"tree_param":{"num_deleted":"0","num_feature":"7","num_nodes":"11","size_leaf_vector":"1"}},{"base_weights":[-5.145397E-3,-1.9281116E-1,5.3848684E-2,-5.2398484E-2,-1.7264964E-1,-2.6406106E-1,-5.5714246E-2,-1.1486297E-2,-2.7168034E-2,-6.9258483E-3,2.7701778E-3],"categories":[],"categories_nodes":[],"categories_segments":[],"categories_sizes":[],"default_left":[0,0,0,0,0,0,0,0,0,0,0],"id":42,"left_children":[1,3,-1,-1,5,7,9,-1,-1,-1,-1],"loss_changes":[3.2136218E2,2.3070107E1,0E0,0E0,1.4081184E1,6.9702606E0,5.342725E0,0E0,0E0,0E0,0E0],"parents":[2147483647,0,0,1,1,4,4,5,5,6,6],"right_children":[2,4,-1,-1,6,8,10,-1,-1,-1,-1],"split_conditions":[1E0,2E0,5.3848684E-2,-5.2398484E-2,2.57E2,6E0,1.8E1,-1.1486297E-2,-2.7168034E-2,-6.9258483E-3,2.7701778E-3],"split_indices":[5,4,0,0,4,1,0,0,0,0,0],"split_type":[0,0,0,0,0,0,0,0,0,0,0],"sum_hessian":[1.5804446E3,1.3475658E3,2.3287886E2,2.9864716E1,1.317701E3,7.388582E2,5.7884283E2,6.595947E2,7.926344E1,3.3153967E2,2.4730319E2],"tree_param":{"num_deleted":"0","num_feature":"7","num_nodes":"11","size_leaf_vector":"1"}},{"base_weights":[4.4207457E-3,-1.7335142E-1,5.362925E-2,-5.21275E-2,-1.5356706E-1,1.0475448E-2,-2.0925407E-1,-4.9317796E-3,1.3856985E-2,-1.5066099E-2,-4.6927854E-3],"categories":[0,1,2,7,8,13],"categories_nodes":[4],"categories_segments":[0],"categories_sizes":[6],"default_left":[0,0,0,0,1,0,0,0,0,0,0],"id":43,"left_children":[1,3,-1,-1,5,7,9,-1,-1,-1,-1],"loss_changes":[2.9837796E2,2.3006107E1,0E0,0E0,1.2045244E1,9.776363E0,1.04291E1,0E0,0E0,0E0,0E0],"parents":[2147483647,0,0,1,1,4,4,5,5,6,6],"right_children":[2,4,-1,-1,6,8,10,-1,-1,-1,-1],"split_conditions":[1E0,2E0,5.362925E-2,-5.21275E-2,1E-45,2.57E2,1.8E1,-4.9317796E-3,1.3856985E-2,-1.5066099E-2,-4.6927854E-3],"split_indices":[5,4,0,0,6,4,0,0,0,0,0],"split_type":[0,0,0,0,1,0,0,0,0,0,0],"sum_hessian":[1.569342E3,1.3461439E3,2.2319801E2,2.880802E1,1.3173359E3,3.3406396E2,9.83272E2,2.3751147E2,9.655248E1,5.4602637E2,4.372456E2],"tree_param":{"num_deleted":"0","num_feature":"7","num_nodes":"11","size_leaf_vector":"1"}},{"base_weights":[6.9501395E-3,-1.6209562E-1,5.341661E-2,-3.0258012E-1,-1.0282787E-1,5.869434E-2,-3.852281E-1,1.770395E-1,-1.4616132E-1,6.9336863E-3,-4.3152772E-2,-1.7914368E-2,-4.8084404E-2,-3.2340273E-2,1.3423688E-2,-1.4804239E-2,-4.3795775E-3],"categories":[0,1,2,5,7,10,13,15,0,1,4,5,6,7,8,10,13],"categories_nodes":[3,4],"categories_segments":[0,8],"categories_sizes":[8,9],"default_left":[0,0,0,1,1,0,0,0,0,0,0,0,0,0,0,0,0],"id":44,"left_children":[1,3,-1,5,7,9,11,13,15,-1,-1,-1,-1,-1,-1,-1,-1],"loss_changes":[2.7928513E2,1.1148987E1,0E0,1.1903084E1,1.1497033E1,5.64476E0,4.6863937E0,9.760651E0,7.1709595E0,0E0,0E0,0E0,0E0,0E0,0E0,0E0,0E0],"parents":[2147483647,0,0,1,1,3,3,4,4,5,5,6,6,7,7,8,8],"right_children":[2,4,-1,6,8,10,12,14,16,-1,-1,-1,-1,-1,-1,-1,-1],"split_conditions":[1E0,2E0,5.341661E-2,1E-45,1E-45,6E0,1E0,1E0,2E0,6.9336863E-3,-4.3152772E-2,-1.7914368E-2,-4.8084404E-2,-3.2340273E-2,1.3423688E-2,-1.4804239E-2,-4.3795775E-3],"split_indices":[5,3,0,6,6,1,2,1,1,0,0,0,0,0,0,0,0],"split_type":[0,0,0,1,1,0,0,0,0,0,0,0,0,0,0,0,0],"sum_hessian":[1.554616E3,1.3417616E3,2.1285439E2,3.9689105E2,9.4487054E2,7.394579E1,3.2294525E2,1.262707E2,8.1859985E2,6.8823586E1,5.122206E0,3.1007547E2,1.2869799E1,1.2007368E1,1.1426333E2,2.288213E2,5.8977856E2],"tree_param":{"num_deleted":"0","num_feature":"7","num_nodes":"17","size_leaf_vector":"1"}},{"base_weights":[-1.1152902E-2,-1.7294525E-1,5.320543E-2,-2.971682E-1,-1.2084244E-1,-9.999262E-2,-3.5738346E-1,-2.571628E-1,-6.647788E-2,-7.9563735E-3,3.4703206E-2,-2.5242208E-2,-1.4322613E-2,-9.804557E-3,-3.544799E-2,4.974124E-4,-9.8377215E-3],"categories":[1,2,5,7,10,13,15],"categories_nodes":[3],"categories_segments":[0],"categories_sizes":[7],"default_left":[0,0,0,1,0,0,0,0,0,0,0,0,0,0,0,0,0],"id":45,"left_children":[1,3,-1,5,7,9,11,13,15,-1,-1,-1,-1,-1,-1,-1,-1],"loss_changes":[2.6702942E2,8.598972E0,0E0,4.636692E0,6.9609547E0,4.498703E0,3.0045586E0,7.258322E0,6.71747E0,0E0,0E0,0E0,0E0,0E0,0E0,0E0,0E0],"parents":[2147483647,0,0,1,1,3,3,4,4,5,5,6,6,7,7,8,8],"right_children":[2,4,-1,6,8,10,12,14,16,-1,-1,-1,-1,-1,-1,-1,-1],"split_conditions":[1E0,2E0,5.320543E-2,1E-45,2E0,2.3E1,6E0,2.2E1,5E0,-7.9563735E-3,3.4703206E-2,-2.5242208E-2,-1.4322613E-2,-9.804557E-3,-3.544799E-2,4.974124E-4,-9.8377215E-3],"split_indices":[5,3,0,6,1,0,0,0,1,0,0,0,0,0,0,0,0],"split_type":[0,0,0,1,0,0,0,0,0,0,0,0,0,0,0,0,0],"sum_hessian":[1.5328668E3,1.333115E3,1.9975186E2,3.9253458E2,9.4058044E2,9.245386E1,3.0008072E2,2.6709735E2,6.734831E2,8.679005E1,5.66381E0,9.547594E1,2.046048E2,2.3655502E2,3.0542322E1,4.2505197E2,2.4843112E2],"tree_param":{"num_deleted":"0","num_feature":"7","num_nodes":"17","size_leaf_vector":"1"}},{"base_weights":[-1.2668033E-2,-1.6909654E-1,5.3019535E-2,-5.1703583E-2,-1.5058537E-1,4.261793E-3,-2.0288844E-1,4.2273114E-3,-7.2582373E-3,-1.5462895E-2,-1.7262336E-3],"categories":[1,5,7,8,10,13],"categories_nodes":[4],"categories_segments":[0],"categories_sizes":[6],"default_left":[0,0,0,0,1,0,0,0,0,0,0],"id":46,"left_children":[1,3,-1,-1,5,7,9,-1,-1,-1,-1],"loss_changes":[2.5635382E2,2.118528E1,0E0,0E0,1.0578796E1,3.9801576E0,1.7474209E1,0E0,0E0,0E0,0E0],"parents":[2147483647,0,0,1,1,4,4,5,5,6,6],"right_children":[2,4,-1,-1,6,8,10,-1,-1,-1,-1],"split_conditions":[1E0,2E0,5.3019535E-2,-5.1703583E-2,1E-45,2E1,3.79E2,4.2273114E-3,-7.2582373E-3,-1.5462895E-2,-1.7262336E-3],"split_indices":[5,4,0,0,6,0,4,0,0,0,0],"split_type":[0,0,0,0,1,0,0,0,0,0,0],"sum_hessian":[1.5251476E3,1.3318373E3,1.9331033E2,2.6755703E1,1.3050815E3,3.2975012E2,9.753314E2,2.1478426E2,1.14965866E2,5.97196E2,3.781354E2],"tree_param":{"num_deleted":"0","num_feature":"7","num_nodes":"11","size_leaf_vector":"1"}},{"base_weights":[1.2630009E-3,-1.4756945E-1,5.2839782E-2,-3.528186E-2,-1.9558898E-1,8.774101E-3,-5.02209E-1,-3.4809783E-1,-1.4588371E-1,-5.2993107E-3,1.107661E-2,-5.1968124E-2,-9.956674E-3,-2.1401213E-2,-6.9773197E-3,-1.1569569E-2,-1.3554589E-3],"categories":[0,1,7,8,10,13],"categories_nodes":[1],"categories_segments":[0],"categories_sizes":[6],"default_left":[0,1,0,0,0,0,0,0,0,0,0,0,0,0,0,0,0],"id":47,"left_children":[1,3,-1,5,7,9,11,13,15,-1,-1,-1,-1,-1,-1,-1,-1],"loss_changes":[2.3765628E2,7.142109E0,0E0,8.199369E0,6.9875374E0,8.93567E0,5.3874807E0,3.7324734E0,7.123083E0,0E0,0E0,0E0,0E0,0E0,0E0,0E0,0E0],"parents":[2147483647,0,0,1,1,3,3,4,4,5,5,6,6,7,7,8,8],"right_children":[2,4,-1,6,8,10,12,14,16,-1,-1,-1,-1,-1,-1,-1,-1],"split_conditions":[1E0,1E-45,5.2839782E-2,6E0,2E0,4E0,2E0,5E0,1.8E1,-5.2993107E-3,1.107661E-2,-5.1968124E-2,-9.956674E-3,-2.1401213E-2,-6.9773197E-3,-1.1569569E-2,-1.3554589E-3],"split_indices":[5,6,0,1,3,1,3,1,0,0,0,0,0,0,0,0,0],"split_type":[0,1,0,0,0,0,0,0,0,0,0,0,0,0,0,0,0],"sum_hessian":[1.510802E3,1.3248547E3,1.8594727E2,3.9737598E2,9.2747876E2,3.6401163E2,3.336437E1,2.2650337E2,7.009754E2,2.3679033E2,1.2722129E2,1.1158431E1,2.2205938E1,1.6298695E2,6.3516415E1,4.070125E2,2.939629E2],"tree_param":{"num_deleted":"0","num_feature":"7","num_nodes":"17","size_leaf_vector":"1"}},{"base_weights":[1.0346428E-2,-1.2985198E-1,5.2666318E-2,-5.1359415E-2,-1.1173333E-1,-1.5509814E-1,6.621611E-2,3.3531684E-4,-1.1075263E-2,5.9771664E-3,-2.3836719E-2],"categories":[1,3,5,7,10,13,0,2,3,4,6,7,8,9,12],"categories_nodes":[5,6],"categories_segments":[0,6],"categories_sizes":[6,9],"default_left":[0,0,0,0,0,1,1,0,0,0,0],"id":48,"left_children":[1,3,-1,-1,5,7,9,-1,-1,-1,-1],"loss_changes":[2.1837608E2,2.1290192E1,0E0,0E0,9.977243E0,1.1163601E1,7.4049582E0,0E0,0E0,0E0,0E0],"parents":[2147483647,0,0,1,1,4,4,5,5,6,6],"right_children":[2,4,-1,-1,6,8,10,-1,-1,-1,-1],"split_conditions":[1E0,2E0,5.2666318E-2,-5.1359415E-2,6.07E2,1E-45,1E-45,3.3531684E-4,-1.1075263E-2,5.9771664E-3,-2.3836719E-2],"split_indices":[5,4,0,0,4,6,6,0,0,0,0],"split_type":[0,0,0,0,0,1,1,0,0,0,0],"sum_hessian":[1.4914988E3,1.3155383E3,1.7596048E2,2.4934816E1,1.2906035E3,1.037823E3,2.5278044E2,3.0225693E2,7.355661E2,2.3088348E2,2.1896961E1],"tree_param":{"num_deleted":"0","num_feature":"7","num_nodes":"11","size_leaf_vector":"1"}},{"base_weights":[-1.8801726E-2,-1.5524149E-1,5.2499365E-2,-4.360184E-1,-1.0099807E-1,-5.111691E-2,-3.559845E-1,-1.7156158E-1,-1.2795069E-2,-7.6809525E-3,-2.6869504E-2,-3.9124945E-3,-3.3109963E-2,8.820858E-3,-4.4347146E-3],"categories":[13,15],"categories_nodes":[6],"categories_segments":[0],"categories_sizes":[2],"default_left":[0,0,0,0,0,0,1,0,0,0,0,0,0,0,0],"id":49,"left_children":[1,3,-1,5,7,-1,9,11,13,-1,-1,-1,-1,-1,-1],"loss_changes":[2.1595576E2,1.9955645E1,0E0,9.598896E0,6.8555565E0,0E0,6.831667E0,2.7969105E1,7.063928E0,0E0,0E0,0E0,0E0,0E0,0E0],"parents":[2147483647,0,0,1,1,3,3,4,4,6,6,7,7,8,8],"right_children":[2,4,-1,6,8,-1,10,12,14,-1,-1,-1,-1,-1,-1],"split_conditions":[1E0,8E0,5.2499365E-2,2E0,1.8E1,-5.111691E-2,1E-45,8E0,2E1,-7.6809525E-3,-2.6869504E-2,-3.9124945E-3,-3.3109963E-2,8.820858E-3,-4.4347146E-3],"split_indices":[5,4,0,4,0,0,6,0,0,0,0,0,0,0,0],"split_type":[0,0,0,0,0,0,1,0,0,0,0,0,0,0,0],"sum_hessian":[1.4788031E3,1.312151E3,1.6665218E2,2.1131189E2,1.1008391E3,2.396597E1,1.8734592E2,6.110479E2,4.8979114E2,8.9429924E1,9.7915985E1,5.1438025E2,9.666767E1,1.3984401E2,3.4994714E2],"tree_param":{"num_deleted":"0","num_feature":"7","num_nodes":"15","size_leaf_vector":"1"}},{"base_weights":[1.2176651E-2,-1.1545519E-1,5.234164E-2,-4.2904046E-1,-6.2450245E-2,-5.0921317E-2,-3.3982596E-1,5.305651E-2,-1.1530162E-1,3.5407253E-2,-1.924167E-2,-9.107778E-3,5.0602085E-3,-9.86419E-3,-6.059276E-4],"categories":[1,3,4,7,8,10,13,0,2,3,4,5,6,7,8,11,12,13,15],"categories_nodes":[4,6],"categories_segments":[0,7],"categories_sizes":[7,12],"default_left":[0,0,0,0,1,0,1,0,0,0,0,0,0,0,0],"id":50,"left_children":[1,3,-1,5,7,-1,9,11,13,-1,-1,-1,-1,-1,-1],"loss_changes":[1.9533011E2,2.1860735E1,0E0,9.656376E0,6.8896937E0,0E0,8.136049E0,4.0349264E0,6.544401E0,0E0,0E0,0E0,0E0,0E0,0E0],"parents":[2147483647,0,0,1,1,3,3,4,4,6,6,7,7,8,8],"right_children":[2,4,-1,6,8,-1,10,12,14,-1,-1,-1,-1,-1,-1],"split_conditions":[1E0,7E0,5.234164E-2,2E0,1E-45,-5.0921317E-2,1E-45,4E0,3.79E2,3.5407253E-2,-1.924167E-2,-9.107778E-3,5.0602085E-3,-9.86419E-3,-6.059276E-4],"split_indices":[5,4,0,4,6,0,6,0,4,0,0,0,0,0,0],"split_type":[0,0,0,0,1,0,1,0,0,0,0,0,0,0,0],"sum_hessian":[1.4772411E3,1.3158148E3,1.6142624E2,1.892267E2,1.1265881E3,2.3508028E1,1.6571866E2,3.536599E2,7.729282E2,6.217355E0,1.5950131E2,5.9619938E1,2.9403998E2,4.3020496E2,3.4272327E2],"tree_param":{"num_deleted":"0","num_feature":"7","num_nodes":"15","size_leaf_vector":"1"}},{"base_weights":[4.4826865E-3,-1.1867575E-1,5.2195873E-2,-4.1688377E-1,-6.274976E-2,-5.0545603E-2,-3.4273264E-1,-2.380615E-1,-2.0567285E-2,-2.8642989E-3,-2.4362076E-2,-2.47708E-2,-3.6797666E-3,7.776186E-3,-4.3474403E-3],"categories":[6,10,13,15],"categories_nodes":[6],"categories_segments":[0],"categories_sizes":[4],"default_left":[0,0,0,0,0,0,1,0,0,0,0,0,0,0,0],"id":51,"left_children":[1,3,-1,5,7,-1,9,11,13,-1,-1,-1,-1,-1,-1],"loss_changes":[1.8541127E2,2.157058E1,0E0,8.653679E0,8.067797E0,0E0,7.52754E0,8.920776E0,1.0311762E1,0E0,0E0,0E0,0E0,0E0,0E0],"parents":[2147483647,0,0,1,1,3,3,4,4,6,6,7,7,8,8],"right_children":[2,4,-1,6,8,-1,10,12,14,-1,-1,-1,-1,-1,-1],"split_conditions":[1E0,8E0,5.2195873E-2,2E0,4E0,-5.0545603E-2,1E-45,2.43E2,7E0,-2.8642989E-3,-2.4362076E-2,-2.47708E-2,-3.6797666E-3,7.776186E-3,-4.3474403E-3],"split_indices":[5,4,0,4,0,0,6,4,0,0,0,0,0,0,0],"split_type":[0,0,0,0,0,0,1,0,0,0,0,0,0,0,0],"sum_hessian":[1.4463862E3,1.2939564E3,1.5242986E2,2.0332654E2,1.0906299E3,2.1162178E1,1.8216437E2,2.1062436E2,8.8000543E2,6.169513E1,1.2046923E2,8.133701E1,1.2928735E2,2.405508E2,6.3945465E2],"tree_param":{"num_deleted":"0","num_feature":"7","num_nodes":"15","size_leaf_vector":"1"}},{"base_weights":[1.4825411E-2,-1.0077354E-1,5.2045118E-2,-5.0354928E-2,-8.540682E-2,-1.6615926E-1,1.2766701E-2,-1.9458508E-2,-6.0251956E-3,1.6916497E-2,-2.0566853E-3],"categories":[0,2,3,4,6,7,8,9,11,13,14],"categories_nodes":[6],"categories_segments":[0],"categories_sizes":[11],"default_left":[0,0,0,0,0,0,1,0,0,0,0],"id":52,"left_children":[1,3,-1,-1,5,7,9,-1,-1,-1,-1],"loss_changes":[1.7234695E2,1.8103085E1,0E0,0E0,1.019187E1,7.134289E0,1.0209634E1,0E0,0E0,0E0,0E0],"parents":[2147483647,0,0,1,1,4,4,5,5,6,6],"right_children":[2,4,-1,-1,6,8,10,-1,-1,-1,-1],"split_conditions":[1E0,2E0,5.2045118E-2,-5.0354928E-2,2.57E2,4E0,1E-45,-1.9458508E-2,-6.0251956E-3,1.6916497E-2,-2.0566853E-3],"split_indices":[5,4,0,0,4,0,6,0,0,0,0],"split_type":[0,0,0,0,0,0,1,0,0,0,0],"sum_hessian":[1.4511296E3,1.3050078E3,1.4612184E2,2.06815E1,1.2843263E3,7.0430725E2,5.800191E2,1.184067E2,5.859005E2,8.163849E1,4.983806E2],"tree_param":{"num_deleted":"0","num_feature":"7","num_nodes":"11","size_leaf_vector":"1"}},{"base_weights":[8.533241E-3,-5.014757E-2,2.34276E-2,2.2233942E-1,-2.9068539E-2,3.394203E-1,7.384007E-2,-2.0162423E-1,4.698094E-2,-2.3009885E-2,1.8987056E-2,1.0962151E-2,-1.2194259E-2,-1.9522961E-2,-7.801248E-3,2.6464385E-3,-5.574412E-2],"categories":[1,2,3,4,5,7,8,10,11,13,14,12,15,7],"categories_nodes":[2,6,8],"categories_segments":[0,11,13],"categories_sizes":[11,2,1],"default_left":[0,0,1,0,0,0,1,0,1,0,0,0,0,0,0,0,0],"id":53,"left_children":[1,-1,3,5,7,9,11,13,15,-1,-1,-1,-1,-1,-1,-1,-1],"loss_changes":[2.1813253E1,0E0,1.4900362E1,5.155155E0,1.4830142E1,5.537077E0,6.1806097E0,2.9155798E0,5.4818177E0,0E0,0E0,0E0,0E0,0E0,0E0,0E0,0E0],"parents":[2147483647,0,0,2,2,3,3,4,4,5,5,6,6,7,7,8,8],"right_children":[2,-1,4,6,8,10,12,14,16,-1,-1,-1,-1,-1,-1,-1,-1],"split_conditions":[2E0,-5.014757E-2,1E-45,9E0,1.72E2,1E0,1E-45,4E0,1E-45,-2.3009885E-2,1.8987056E-2,1.0962151E-2,-1.2194259E-2,-1.9522961E-2,-7.801248E-3,2.6464385E-3,-5.574412E-2],"split_indices":[4,0,6,0,4,1,6,0,6,0,0,0,0,0,0,0,0],"split_type":[0,0,1,0,0,0,1,0,1,0,0,0,0,0,0,0,0],"sum_hessian":[1.445343E3,2.0011518E1,1.4253315E3,2.969459E2,1.1283856E3,1.653186E2,1.3162727E2,3.4467328E2,7.8371234E2,7.436142E0,1.5788246E2,9.051444E1,4.111283E1,6.5570595E1,2.791027E2,7.806704E2,3.0419776E0],"tree_param":{"num_deleted":"0","num_feature":"7","num_nodes":"17","size_leaf_vector":"1"}},{"base_weights":[4.9139213E-5,-1.12049185E-1,5.1903408E-2,-4.992885E-2,-9.7935155E-2,1.1208589E-1,-1.1979049E-1,1.2106393E-2,-1.724899E-2,-1.0969612E-2,-4.1138693E-3],"categories":[0,1,2,4,5,6,7,8,10,13],"categories_nodes":[4],"categories_segments":[0],"categories_sizes":[10],"default_left":[0,0,0,0,1,0,0,0,0,0,0],"id":54,"left_children":[1,3,-1,-1,5,7,9,-1,-1,-1,-1],"loss_changes":[1.6752084E2,1.6160355E1,0E0,0E0,5.8891945E0,7.285694E0,4.315876E0,0E0,0E0,0E0,0E0],"parents":[2147483647,0,0,1,1,4,4,5,5,6,6],"right_children":[2,4,-1,-1,6,8,10,-1,-1,-1,-1],"split_conditions":[1E0,2E0,5.1903408E-2,-4.992885E-2,1E-45,2E1,9.4E1,1.2106393E-2,-1.724899E-2,-1.0969612E-2,-4.1138693E-3],"split_indices":[5,4,0,0,6,0,4,0,0,0,0],"split_type":[0,0,0,0,1,0,0,0,0,0,0],"sum_hessian":[1.4376753E3,1.2983547E3,1.3932059E2,1.9253553E1,1.2791012E3,1.201716E2,1.1589296E3,9.392017E1,2.6251429E1,3.1574384E2,8.431857E2],"tree_param":{"num_deleted":"0","num_feature":"7","num_nodes":"11","size_leaf_vector":"1"}},{"base_weights":[3.017277E-3,-1.04182385E-1,5.1773287E-2,-3.7389597E-1,-5.5047527E-2,-4.967799E-2,-3.058812E-1,9.816399E-2,-8.895017E-2,1.0531488E-2,-2.0689731E-2,1.6260369E-2,-6.314938E-3,-8.280351E-3,3.2781565E-4],"categories":[1,2,4,5,7,8,9,13,0,2,3,4,5,6,7,11,13,15],"categories_nodes":[4,6],"categories_segments":[0,8],"categories_sizes":[8,10],"default_left":[0,0,0,0,1,0,1,0,0,0,0,0,0,0,0],"id":55,"left_children":[1,3,-1,5,7,-1,9,11,13,-1,-1,-1,-1,-1,-1],"loss_changes":[1.5810983E2,1.7130667E1,0E0,8.0944E0,5.7013454E0,0E0,1.017594E1,1.0184977E1,6.5747743E0,0E0,0E0,0E0,0E0,0E0,0E0],"parents":[2147483647,0,0,1,1,3,3,4,4,6,6,7,7,8,8],"right_children":[2,4,-1,6,8,-1,10,12,14,-1,-1,-1,-1,-1,-1],"split_conditions":[1E0,8E0,5.1773287E-2,2E0,1E-45,-4.967799E-2,1E-45,8E0,1.8E1,1.0531488E-2,-2.0689731E-2,1.6260369E-2,-6.314938E-3,-8.280351E-3,3.2781565E-4],"split_indices":[5,4,0,4,6,0,6,0,0,0,0,0,0,0,0],"split_type":[0,0,0,0,1,0,1,0,0,0,0,0,0,0,0],"sum_hessian":[1.4265806E3,1.2932054E3,1.333751E2,1.9826569E2,1.0949398E3,1.8263554E1,1.8000214E2,1.9804535E2,8.968944E2,3.0943586E1,1.4905855E2,9.8233574E1,9.9811775E1,4.9713913E2,3.997553E2],"tree_param":{"num_deleted":"0","num_feature":"7","num_nodes":"15","size_leaf_vector":"1"}},{"base_weights":[-8.544945E-3,-1.109741E-1,5.1641818E-2,-3.7307104E-1,-6.419434E-2,-4.9461313E-2,-3.0644336E-1,-3.40148E-2,-2.9314613E-1,-2.9070592E-2,-1.0940555E-2,1.869268E-2,-2.5505233E-3,-2.3958096E-2,7.541099E-3],"categories":[],"categories_nodes":[],"categories_segments":[],"categories_sizes":[],"default_left":[0,0,0,0,0,0,0,0,0,0,0,0,0,0,0],"id":56,"left_children":[1,3,-1,5,7,-1,9,11,13,-1,-1,-1,-1,-1,-1],"loss_changes":[1.5068468E2,1.5744392E1,0E0,7.6845264E0,7.538861E0,0E0,4.138563E0,6.718136E0,1.0569364E1,0E0,0E0,0E0,0E0,0E0,0E0],"parents":[2147483647,0,0,1,1,3,3,4,4,6,6,7,7,8,8],"right_children":[2,4,-1,6,8,-1,10,12,14,-1,-1,-1,-1,-1,-1],"split_conditions":[1E0,8E0,5.1641818E-2,2E0,6E0,-4.9461313E-2,2E0,1E1,6.07E2,-2.9070592E-2,-1.0940555E-2,1.869268E-2,-2.5505233E-3,-2.3958096E-2,7.541099E-3],"split_indices":[5,4,0,4,1,0,1,4,4,0,0,0,0,0,0],"split_type":[0,0,0,0,0,0,0,0,0,0,0,0,0,0,0],"sum_hessian":[1.4105791E3,1.2850741E3,1.2550508E2,1.935697E2,1.0915044E3,1.7537788E1,1.7603192E2,9.653979E2,1.2610642E2,4.1181095E1,1.3485083E2,3.7778484E1,9.2761945E2,8.8815025E1,3.7291393E1],"tree_param":{"num_deleted":"0","num_feature":"7","num_nodes":"15","size_leaf_vector":"1"}},{"base_weights":[-8.880143E-3,-1.0616052E-1,5.1517613E-2,-4.91646E-2,-9.41064E-2,-2.7478206E-1,-6.440043E-2,3.9106417E-3,-2.0809753E-2,5.6965463E-3,-4.6708914E-3],"categories":[5,6,13,15,0,1,2,4,5,7,8,9,13],"categories_nodes":[5,6],"categories_segments":[0,4],"categories_sizes":[4,9],"default_left":[0,0,0,0,0,1,1,0,0,0,0],"id":57,"left_children":[1,3,-1,-1,5,7,9,-1,-1,-1,-1],"loss_changes":[1.4226445E2,1.351155E1,0E0,0E0,6.800392E0,8.9711895E0,5.662835E0,0E0,0E0,0E0,0E0],"parents":[2147483647,0,0,1,1,4,4,5,5,6,6],"right_children":[2,4,-1,-1,6,8,10,-1,-1,-1,-1],"split_conditions":[1E0,2E0,5.1517613E-2,-4.91646E-2,8E0,1E-45,1E-45,3.9106417E-3,-2.0809753E-2,5.6965463E-3,-4.6708914E-3],"split_indices":[5,4,0,0,4,6,6,0,0,0,0],"split_type":[0,0,0,0,0,1,1,0,0,0,0],"sum_hessian":[1.4051266E3,1.2856752E3,1.1945152E2,1.6336805E1,1.2693383E3,1.7806616E2,1.0912721E3,5.10592E1,1.2700696E2,1.5230841E2,9.3896375E2],"tree_param":{"num_deleted":"0","num_feature":"7","num_nodes":"11","size_leaf_vector":"1"}},{"base_weights":[1.0885248E-2,-4.8950367E-2,2.2902047E-2,1.8943542E-1,-4.510373E-2,2.1928425E-1,-1.6480532E-1,-2.3267785E-1,3.0349813E-2,4.9953177E-3,2.0705815E-2,5.9508528E-3,-6.5559894E-2,-2.5741829E-2,-8.237118E-3,-2.4924087E-3,6.8214214E-3],"categories":[1,3,4,5,7,8,13],"categories_nodes":[2],"categories_segments":[0],"categories_sizes":[7],"default_left":[0,0,1,0,0,0,0,0,0,0,0,0,0,0,0,0,0],"id":58,"left_children":[1,-1,3,5,7,9,11,13,15,-1,-1,-1,-1,-1,-1,-1,-1],"loss_changes":[1.6556393E1,0E0,1.5572353E1,4.2514973E0,1.3828925E1,8.520439E0,1.0422352E1,5.2874966E0,5.9391694E0,0E0,0E0,0E0,0E0,0E0,0E0,0E0,0E0],"parents":[2147483647,0,0,2,2,3,3,4,4,5,5,6,6,7,7,8,8],"right_children":[2,-1,4,6,8,10,12,14,16,-1,-1,-1,-1,-1,-1,-1,-1],"split_conditions":[2E0,-4.8950367E-2,1E-45,6E0,1.72E2,4E0,2E1,4E0,1.8E1,4.9953177E-3,2.0705815E-2,5.9508528E-3,-6.5559894E-2,-2.5741829E-2,-8.237118E-3,-2.4924087E-3,6.8214214E-3],"split_indices":[4,0,6,1,4,1,0,0,0,0,0,0,0,0,0,0,0],"split_type":[0,0,1,0,0,0,0,0,0,0,0,0,0,0,0,0,0],"sum_hessian":[1.3889535E3,1.5693821E1,1.3732596E3,3.9766565E2,9.7559406E2,3.6711316E2,3.0552502E1,2.7926645E2,6.963276E2,2.2857375E2,1.385394E2,2.5207775E1,5.3447266E0,5.291491E1,2.2635155E2,3.9683832E2,2.9948926E2],"tree_param":{"num_deleted":"0","num_feature":"7","num_nodes":"17","size_leaf_vector":"1"}},{"base_weights":[5.4694056E-3,-8.629007E-2,5.1395446E-2,-4.8784804E-2,-7.4753314E-2,-1.4460203E-1,8.697621E-3,-1.834682E-2,-4.9792654E-3,3.1355288E-2,-9.412532E-4],"categories":[0,2,3,4,5,6,7,8,9,11,12,13,14],"categories_nodes":[6],"categories_segments":[0],"categories_sizes":[13],"default_left":[0,0,0,0,0,0,1,0,0,0,0],"id":59,"left_children":[1,3,-1,-1,5,7,9,-1,-1,-1,-1],"loss_changes":[1.3095784E2,1.3070843E1,0E0,0E0,7.378611E0,6.8597775E0,9.84295E0,0E0,0E0,0E0,0E0],"parents":[2147483647,0,0,1,1,4,4,5,5,6,6],"right_children":[2,4,-1,-1,6,8,10,-1,-1,-1,-1],"split_conditions":[1E0,2E0,5.1395446E-2,-4.8784804E-2,2.57E2,4E0,1E-45,-1.834682E-2,-4.9792654E-3,3.1355288E-2,-9.412532E-4],"split_indices":[5,4,0,0,4,0,6,0,0,0,0],"split_type":[0,0,0,0,0,0,1,0,0,0,0],"sum_hessian":[1.3939181E3,1.2799626E3,1.1395545E2,1.5320017E1,1.2646426E3,6.880281E2,5.7661456E2,1.1464643E2,5.7338165E2,2.3640919E1,5.5297363E2],"tree_param":{"num_deleted":"0","num_feature":"7","num_nodes":"11","size_leaf_vector":"1"}},{"base_weights":[-1.2823391E-2,-1.0124962E-1,5.1280733E-2,-4.8456118E-2,-9.077124E-2,-1.6969667E-1,2.7507537E-3,-2.8222334E-3,-1.1097624E-2,2.783944E-2,-1.081102E-3],"categories":[0,1,5,7,10,13,0,2,3,4,5,6,7,8,9,11,12,13,14],"categories_nodes":[5,6],"categories_segments":[0,6],"categories_sizes":[6,13],"default_left":[0,0,0,0,0,1,1,0,0,0,0],"id":60,"left_children":[1,3,-1,-1,5,7,9,-1,-1,-1,-1],"loss_changes":[1.2765145E2,1.1560755E1,0E0,0E0,9.350761E0,4.053236E0,7.8542085E0,0E0,0E0,0E0,0E0],"parents":[2147483647,0,0,1,1,4,4,5,5,6,6],"right_children":[2,4,-1,-1,6,8,10,-1,-1,-1,-1],"split_conditions":[1E0,2E0,5.1280733E-2,-4.8456118E-2,2.57E2,1E-45,1E-45,-2.8222334E-3,-1.1097624E-2,2.783944E-2,-1.081102E-3],"split_indices":[5,4,0,0,4,6,6,0,0,0,0],"split_type":[0,0,0,0,0,1,1,0,0,0,0],"sum_hessian":[1.3880267E3,1.2799385E3,1.0808824E2,1.4177741E1,1.2657607E3,6.8600793E2,5.797528E2,2.1725018E2,4.6875775E2,2.350886E1,5.5624396E2],"tree_param":{"num_deleted":"0","num_feature":"7","num_nodes":"11","size_leaf_vector":"1"}},{"base_weights":[2.0234305E-2,-6.205115E-2,5.1173296E-2,-4.832059E-2,-5.1312003E-2,-8.6039424E-2,8.2462005E-2,-2.7517427E-3,-1.6738208E-2,7.353508E-3,-2.9162554E-2],"categories":[0,2,3,4,6,7,8,9,12],"categories_nodes":[6],"categories_segments":[0],"categories_sizes":[9],"default_left":[0,0,0,0,0,0,1,0,0,0,0],"id":61,"left_children":[1,3,-1,-1,5,7,9,-1,-1,-1,-1],"loss_changes":[1.1409863E2,1.2358675E1,0E0,0E0,5.8776617E0,7.721924E0,1.1309316E1,0E0,0E0,0E0,0E0],"parents":[2147483647,0,0,1,1,4,4,5,5,6,6],"right_children":[2,4,-1,-1,6,8,10,-1,-1,-1,-1],"split_conditions":[1E0,2E0,5.1173296E-2,-4.832059E-2,6.07E2,6E0,1E-45,-2.7517427E-3,-1.6738208E-2,7.353508E-3,-2.9162554E-2],"split_indices":[5,4,0,0,4,1,6,0,0,0,0],"split_type":[0,0,0,0,0,0,1,0,0,0,0],"sum_hessian":[1.3803838E3,1.2766136E3,1.0377021E2,1.393735E1,1.2626763E3,1.0027274E3,2.5994885E2,8.926732E2,1.1005416E2,2.3766254E2,2.2286314E1],"tree_param":{"num_deleted":"0","num_feature":"7","num_nodes":"11","size_leaf_vector":"1"}},{"base_weights":[1.35816885E-2,-6.514241E-2,5.1066156E-2,-3.7964653E-2,-2.7918512E-1,-1.7322735E-1,2.1934263E-2,-1.5481713E-1,-5.806447E-1,-2.4759015E-2,-4.744507E-3,1.0426253E-2,-1.8383783E-3,-9.113548E-3,5.830397E-2,-1.9121047E-2,-5.730028E-2],"categories":[0,1,2,5,6,7,10,12,15,0,2,4,7,8,9,11,13,14,15],"categories_nodes":[4,6],"categories_segments":[0,9],"categories_sizes":[9,10],"default_left":[0,0,0,0,1,0,1,0,0,0,0,0,0,0,0,0,0],"id":62,"left_children":[1,3,-1,5,7,9,11,13,15,-1,-1,-1,-1,-1,-1,-1,-1],"loss_changes":[1.089578E2,7.4008656E0,0E0,9.172709E0,5.286001E0,8.715879E0,8.6084385E0,3.943109E0,4.214203E0,0E0,0E0,0E0,0E0,0E0,0E0,0E0,0E0],"parents":[2147483647,0,0,1,1,3,3,4,4,5,5,6,6,7,7,8,8],"right_children":[2,4,-1,6,8,10,12,14,16,-1,-1,-1,-1,-1,-1,-1,-1],"split_conditions":[1E0,6E0,5.1066156E-2,2E0,1E-45,4E0,1E-45,1E0,2E1,-2.4759015E-2,-4.744507E-3,1.0426253E-2,-1.8383783E-3,-9.113548E-3,5.830397E-2,-1.9121047E-2,-5.730028E-2],"split_indices":[5,1,0,1,6,0,6,2,0,0,0,0,0,0,0,0,0],"split_type":[0,0,0,0,1,0,1,0,0,0,0,0,0,0,0,0,0],"sum_hessian":[1.3715756E3,1.2730603E3,9.8515274E1,1.1306722E3,1.4238806E2,3.464447E2,7.8422754E2,1.0187345E2,4.0514614E1,6.675826E1,2.7968646E2,1.870654E2,5.971621E2,1.0064366E2,1.229791E0,3.1238394E1,9.276219E0],"tree_param":{"num_deleted":"0","num_feature":"7","num_nodes":"17","size_leaf_vector":"1"}},{"base_weights":[-8.163842E-3,-8.614757E-2,5.0964307E-2,-4.80239E-2,-7.620143E-2,8.787378E-2,-1.11448325E-1,1.1335554E-4,2.0491455E-2,-9.18596E-3,-1.1054975E-3],"categories":[0,1,2,3,4,5,7,8,13],"categories_nodes":[4],"categories_segments":[0],"categories_sizes":[9],"default_left":[0,0,0,0,1,0,0,0,0,0,0],"id":63,"left_children":[1,3,-1,-1,5,7,9,-1,-1,-1,-1],"loss_changes":[1.0855426E2,1.0876624E1,0E0,0E0,7.216002E0,6.0875983E0,6.621435E0,0E0,0E0,0E0,0E0],"parents":[2147483647,0,0,1,1,4,4,5,5,6,6],"right_children":[2,4,-1,-1,6,8,10,-1,-1,-1,-1],"split_conditions":[1E0,2E0,5.0964307E-2,-4.80239E-2,1E-45,2.57E2,1.8E1,1.1335554E-4,2.0491455E-2,-9.18596E-3,-1.1054975E-3],"split_indices":[5,4,0,0,6,4,0,0,0,0,0],"split_type":[0,0,0,0,1,0,0,0,0,0,0],"sum_hessian":[1.3527258E3,1.2581482E3,9.457763E1,1.307643E1,1.2450718E3,2.199068E2,1.025165E3,1.7451183E2,4.5394974E1,5.6613226E2,4.5903278E2],"tree_param":{"num_deleted":"0","num_feature":"7","num_nodes":"11","size_leaf_vector":"1"}},{"base_weights":[-2.130894E-3,-7.558307E-2,5.086216E-2,-4.7918804E-2,-6.564014E-2,-1.3314787E-1,1.4355406E-2,-2.9828257E-3,-9.59555E-3,7.560886E-3,-3.3214984E-3],"categories":[],"categories_nodes":[],"categories_segments":[],"categories_sizes":[],"default_left":[0,0,0,0,0,0,0,0,0,0,0],"id":64,"left_children":[1,3,-1,-1,5,7,9,-1,-1,-1,-1],"loss_changes":[1.0104826E2,1.0986448E1,0E0,0E0,6.730025E0,2.9069319E0,6.3244066E0,0E0,0E0,0E0,0E0],"parents":[2147483647,0,0,1,1,4,4,5,5,6,6],"right_children":[2,4,-1,-1,6,8,10,-1,-1,-1,-1],"split_conditions":[1E0,2E0,5.086216E-2,-4.7918804E-2,2.57E2,2.4E1,6E0,-2.9828257E-3,-9.59555E-3,7.560886E-3,-3.3214984E-3],"split_indices":[5,4,0,0,4,4,0,0,0,0,0],"split_type":[0,0,0,0,0,0,0,0,0,0,0],"sum_hessian":[1.3475283E3,1.2578206E3,8.9707855E1,1.2946703E1,1.2448738E3,6.747729E2,5.7010095E2,3.007095E2,3.7406335E2,2.1128358E2,3.5881735E2],"tree_param":{"num_deleted":"0","num_feature":"7","num_nodes":"11","size_leaf_vector":"1"}},{"base_weights":[1.2835304E-2,-5.6231774E-2,5.076865E-2,-1.6621743E-1,-1.4779848E-2,-3.4888008E-1,2.009602E-3,9.47301E-2,-1.2008932E-1,-1.0650233E-2,-3.9466474E-2,5.5087754E-3,-2.6324535E-2,7.3384396E-3,-7.1681156E-3,-3.0762983E-2,-2.150814E-3],"categories":[1,3,4,5,7,8,9,10,11,12,15],"categories_nodes":[6],"categories_segments":[0],"categories_sizes":[11],"default_left":[0,0,0,0,0,0,1,0,0,0,0,0,0,0,0,0,0],"id":65,"left_children":[1,3,-1,5,7,9,11,13,15,-1,-1,-1,-1,-1,-1,-1,-1],"loss_changes":[9.352042E1,5.7591295E0,0E0,1.0627323E1,1.0608882E1,9.754501E0,1.0406009E1,5.6094356E0,1.78684E1,0E0,0E0,0E0,0E0,0E0,0E0,0E0,0E0],"parents":[2147483647,0,0,1,1,3,3,4,4,5,5,6,6,7,7,8,8],"right_children":[2,4,-1,6,8,10,12,14,16,-1,-1,-1,-1,-1,-1,-1,-1],"split_conditions":[1E0,2E0,5.076865E-2,1.8E1,8E0,7E0,1E-45,6E0,1.1E1,-1.0650233E-2,-3.9466474E-2,5.5087754E-3,-2.6324535E-2,7.3384396E-3,-7.1681156E-3,-3.0762983E-2,-2.150814E-3],"split_indices":[5,1,0,0,0,0,6,1,0,0,0,0,0,0,0,0,0],"split_type":[0,0,0,0,0,0,1,0,0,0,0,0,0,0,0,0,0],"sum_hessian":[1.3488E3,1.2627502E3,8.60498E1,3.448197E2,9.1793054E2,1.6480206E2,1.8001764E2,4.5004013E2,4.678904E2,1.27081856E2,3.772021E1,1.5009073E2,2.9926899E1,3.696345E2,8.0405624E1,6.207769E1,4.058127E2],"tree_param":{"num_deleted":"0","num_feature":"7","num_nodes":"17","size_leaf_vector":"1"}},{"base_weights":[8.419028E-4,-6.611796E-2,5.068027E-2,-4.7600713E-2,-5.683075E-2,3.9320786E-2,-1.1232484E-1,3.7020973E-3,-1.5378279E-2,-2.0513764E-2,-3.8086628E-3],"categories":[1,7,8,13],"categories_nodes":[4],"categories_segments":[0],"categories_sizes":[4],"default_left":[0,0,0,0,1,0,0,0,0,0,0],"id":66,"left_children":[1,3,-1,-1,5,7,9,-1,-1,-1,-1],"loss_changes":[9.161292E1,1.0371521E1,0E0,0E0,6.701345E0,5.5635524E0,8.543312E0,0E0,0E0,0E0,0E0],"parents":[2147483647,0,0,1,1,4,4,5,5,6,6],"right_children":[2,4,-1,-1,6,8,10,-1,-1,-1,-1],"split_conditions":[1E0,2E0,5.068027E-2,-4.7600713E-2,1E-45,6E0,9E0,3.7020973E-3,-1.5378279E-2,-2.0513764E-2,-3.8086628E-3],"split_indices":[5,4,0,0,6,1,4,0,0,0,0],"split_type":[0,0,0,0,1,0,0,0,0,0,0],"sum_hessian":[1.3489459E3,1.2661667E3,8.277916E1,1.2082922E1,1.2540839E3,4.5903345E2,7.9505035E2,4.1798257E2,4.1050896E1,8.490882E1,7.1014154E2],"tree_param":{"num_deleted":"0","num_feature":"7","num_nodes":"11","size_leaf_vector":"1"}},{"base_weights":[1.594114E-2,-4.6093367E-2,5.0574657E-2,-4.7389798E-2,-3.6934067E-2,8.366414E-2,-9.474021E-2,5.7938187E-3,-1.3866938E-2,-1.01295905E-2,-2.5736543E-3],"categories":[0,1,4,7,8,13],"categories_nodes":[4],"categories_segments":[0],"categories_sizes":[6],"default_left":[0,0,0,0,1,0,0,0,0,0,0],"id":67,"left_children":[1,3,-1,-1,5,7,9,-1,-1,-1,-1],"loss_changes":[8.260957E1,1.0366385E1,0E0,0E0,8.706616E0,4.7398405E0,3.927795E0,0E0,0E0,0E0,0E0],"parents":[2147483647,0,0,1,1,4,4,5,5,6,6],"right_children":[2,4,-1,-1,6,8,10,-1,-1,-1,-1],"split_conditions":[1E0,2E0,5.0574657E-2,-4.7389798E-2,1E-45,6E0,1.72E2,5.7938187E-3,-1.3866938E-2,-1.01295905E-2,-2.5736543E-3],"split_indices":[5,4,0,0,6,1,4,0,0,0,0],"split_type":[0,0,0,0,1,0,0,0,0,0,0],"sum_hessian":[1.335866E3,1.2584062E3,7.7459694E1,1.1623588E1,1.2467827E3,4.0383456E2,8.429481E2,3.713758E2,3.245879E1,2.4029202E2,6.026561E2],"tree_param":{"num_deleted":"0","num_feature":"7","num_nodes":"11","size_leaf_vector":"1"}},{"base_weights":[9.825059E-3,-4.720869E-2,1.86934E-2,-9.203695E-2,6.0052704E-2,-2.4603547E-1,5.362476E-2,9.472349E-2,-1.3490413E-1,-8.374064E-3,-5.6378555E-2,6.3039884E-3,-1.9273892E-2,9.247511E-3,5.913754E-4,-1.3549367E-2,1.0884217E-2],"categories":[1,3,4,5,7,8,9,12,15],"categories_nodes":[6],"categories_segments":[0],"categories_sizes":[9],"default_left":[0,0,0,0,0,0,1,0,0,0,0,0,0,0,0,0,0],"id":68,"left_children":[1,-1,3,5,7,9,11,13,15,-1,-1,-1,-1,-1,-1,-1,-1],"loss_changes":[1.126933E1,0E0,6.0446177E0,8.06596E0,6.5062137E0,1.1907488E1,5.9442763E0,6.102563E0,7.0383873E0,0E0,0E0,0E0,0E0,0E0,0E0,0E0,0E0],"parents":[2147483647,0,0,2,2,3,3,4,4,5,5,6,6,7,7,8,8],"right_children":[2,-1,4,6,8,10,12,14,16,-1,-1,-1,-1,-1,-1,-1,-1],"split_conditions":[2E0,-4.720869E-2,2E0,1.8E1,6E0,9E0,1E-45,8E0,6.07E2,-8.374064E-3,-5.6378555E-2,6.3039884E-3,-1.9273892E-2,9.247511E-3,5.913754E-4,-1.3549367E-2,1.0884217E-2],"split_indices":[4,0,1,0,1,0,6,0,4,0,0,0,0,0,0,0,0],"split_type":[0,0,0,0,0,0,1,0,0,0,0,0,0,0,0,0,0],"sum_hessian":[1.3289248E3,1.1268485E1,1.3176564E3,3.5799063E2,9.596657E2,1.7368054E2,1.8431009E2,8.1520514E2,1.4446057E2,1.6056268E2,1.3117856E1,1.5881703E2,2.5493057E1,3.8975354E2,4.2545163E2,1.0439879E2,4.006178E1],"tree_param":{"num_deleted":"0","num_feature":"7","num_nodes":"17","size_leaf_vector":"1"}},{"base_weights":[3.0235504E-3,-5.7439025E-2,5.0485548E-2,-3.0081815E-1,-2.6841993E-2,1.4944321E-2,-4.6027786E-1,-2.1080066E-2,-8.825286E-1,-3.3672594E-3,3.837703E-2,-3.8457148E-2,-1.6962161E-2,2.670858E-3,-3.776698E-3,-1.1394908E-2,-5.8057465E-2],"categories":[2,7,12,13,15,7,8],"categories_nodes":[3,4],"categories_segments":[0,5],"categories_sizes":[5,2],"default_left":[0,0,0,1,1,0,0,0,0,0,0,0,0,0,0,0,0],"id":69,"left_children":[1,3,-1,5,7,9,11,13,15,-1,-1,-1,-1,-1,-1,-1,-1],"loss_changes":[8.0913666E1,9.330679E0,0E0,7.053812E0,5.4794264E0,3.0200436E0,3.2166615E0,4.5016317E0,1.091332E0,0E0,0E0,0E0,0E0,0E0,0E0,0E0,0E0],"parents":[2147483647,0,0,1,1,3,3,4,4,5,5,6,6,7,7,8,8],"right_children":[2,4,-1,6,8,10,12,14,16,-1,-1,-1,-1,-1,-1,-1,-1],"split_conditions":[1E0,6E0,5.0485548E-2,1E-45,1E-45,2.3E1,6E0,7E0,9.5E1,-3.3672594E-3,3.837703E-2,-3.8457148E-2,-1.6962161E-2,2.670858E-3,-3.776698E-3,-1.1394908E-2,-5.8057465E-2],"split_indices":[5,4,0,6,6,0,0,0,4,0,0,0,0,0,0,0,0],"split_type":[0,0,0,1,1,0,0,0,0,0,0,0,0,0,0,0,0],"sum_hessian":[1.3274012E3,1.2530829E3,7.431838E1,1.3895514E2,1.1141277E3,4.6930172E1,9.202497E1,1.1076935E3,6.4342284E0,4.312533E1,3.8048434E0,2.4401272E1,6.7623695E1,4.677684E2,6.399251E2,2.4636753E0,3.970553E0],"tree_param":{"num_deleted":"0","num_feature":"7","num_nodes":"17","size_leaf_vector":"1"}},{"base_weights":[-4.6917894E-3,-6.2990256E-2,5.039512E-2,-4.6848886E-2,-5.4786183E-2,8.304312E-2,-8.242362E-2,-1.6042529E-2,6.4992183E-3,-6.0415035E-3,2.4153406E-3],"categories":[1,3,4,5,6,7,8,10,12,13],"categories_nodes":[4],"categories_segments":[0],"categories_sizes":[10],"default_left":[0,0,0,0,1,0,0,0,0,0,0],"id":70,"left_children":[1,3,-1,-1,5,7,9,-1,-1,-1,-1],"loss_changes":[7.761056E1,8.861713E0,0E0,0E0,4.701973E0,3.9543138E0,5.16325E0,0E0,0E0,0E0,0E0],"parents":[2147483647,0,0,1,1,4,4,5,5,6,6],"right_children":[2,4,-1,-1,6,8,10,-1,-1,-1,-1],"split_conditions":[1E0,2E0,5.039512E-2,-4.6848886E-2,1E-45,1E0,6.07E2,-1.6042529E-2,6.4992183E-3,-6.0415035E-3,2.4153406E-3],"split_indices":[5,4,0,0,6,1,4,0,0,0,0],"split_type":[0,0,0,0,1,0,0,0,0,0,0],"sum_hessian":[1.3126294E3,1.2420577E3,7.057167E1,1.0497904E1,1.2315598E3,2.053691E2,1.0261907E3,2.0775614E1,1.8459349E2,7.932289E2,2.3296184E2],"tree_param":{"num_deleted":"0","num_feature":"7","num_nodes":"11","size_leaf_vector":"1"}},{"base_weights":[-9.780142E-3,-6.562117E-2,5.030764E-2,-4.650029E-2,-5.8022317E-2,5.848825E-2,-8.072369E-2,6.0798787E-3,-1.9618778E-2,-9.813823E-3,-1.1396115E-3],"categories":[1,2,4,5,7,8,13,15],"categories_nodes":[4],"categories_segments":[0],"categories_sizes":[8],"default_left":[0,0,0,0,1,0,0,0,0,0,0],"id":71,"left_children":[1,3,-1,-1,5,7,9,-1,-1,-1,-1],"loss_changes":[7.453619E1,8.125193E0,0E0,0E0,3.272438E0,5.796679E0,6.9200077E0,0E0,0E0,0E0,0E0],"parents":[2147483647,0,0,1,1,4,4,5,5,6,6],"right_children":[2,4,-1,-1,6,8,10,-1,-1,-1,-1],"split_conditions":[1E0,2E0,5.030764E-2,-4.650029E-2,1E-45,4.58E2,1.83E2,6.0798787E-3,-1.9618778E-2,-9.813823E-3,-1.1396115E-3],"split_indices":[5,4,0,0,6,4,4,0,0,0,0],"split_type":[0,0,0,0,1,0,0,0,0,0,0],"sum_hessian":[1.3116951E3,1.2442405E3,6.7454605E1,9.785042E0,1.2344554E3,2.010463E2,1.0334092E3,1.77001E2,2.4045284E1,3.442881E2,6.8912103E2],"tree_param":{"num_deleted":"0","num_feature":"7","num_nodes":"11","size_leaf_vector":"1"}},{"base_weights":[-1.6647821E-2,-2.3273587E-1,1.4776733E-2,1.7407385E-1,-3.6250404E-1,2.7870975E-2,-5.274741E-1,-2.0148374E-1,5.9164E-1,-4.151731E-1,3.1426892E-1,2.044495E-1,-5.085816E-3,-6.809736E-1,2.243149E-2,-3.6915583E-3,-4.2342152E-2,3.8093887E-2,-3.8492795E-2,-4.43259E-2,-1.8990068E-2,4.5676775E-2,-2.426623E-2,2.3969747E-2,-4.567033E-3,-1.7439763E-3,8.321255E-3,5.1470334E-3,-3.8077872E-2,2.2962404E-2,-4.527008E-2],"categories":[0,3,4,5,6,7,13,15,1,7,8,0,1,2,4,5,7,8,9,11,13,14,0,2,3,4,5,6,7,8],"categories_nodes":[1,2,5,14],"categories_segments":[0,8,11,22],"categories_sizes":[8,3,11,8],"default_left":[0,1,1,0,0,1,0,0,0,0,0,0,0,0,1,0,0,0,0,0,0,0,0,0,0,0,0,0,0,0,0],"id":72,"left_children":[1,3,5,7,9,11,13,15,17,19,21,23,25,27,29,-1,-1,-1,-1,-1,-1,-1,-1,-1,-1,-1,-1,-1,-1,-1,-1],"loss_changes":[8.894291E0,8.841814E0,8.137668E0,6.531943E0,4.635994E0,6.507178E0,2.2964244E0,1.772536E0,5.13338E0,1.6256943E0,5.089298E0,1.43465E1,4.8251386E0,1.4150314E0,3.198345E0,0E0,0E0,0E0,0E0,0E0,0E0,0E0,0E0,0E0,0E0,0E0,0E0,0E0,0E0,0E0,0E0],"parents":[2147483647,0,0,1,1,2,2,3,3,4,4,5,5,6,6,7,7,8,8,9,9,10,10,11,11,12,12,13,13,14,14],"right_children":[2,4,6,8,10,12,14,16,18,20,22,24,26,28,30,-1,-1,-1,-1,-1,-1,-1,-1,-1,-1,-1,-1,-1,-1,-1,-1],"split_conditions":[7E0,1E-45,1E-45,4E0,2.3E1,1E-45,2.57E2,1E0,2.2E1,2E0,4E0,8E0,7.28E2,1E0,1E-45,-3.6915583E-3,-4.2342152E-2,3.8093887E-2,-3.8492795E-2,-4.43259E-2,-1.8990068E-2,4.5676775E-2,-2.426623E-2,2.3969747E-2,-4.567033E-3,-1.7439763E-3,8.321255E-3,5.1470334E-3,-3.8077872E-2,2.2962404E-2,-4.527008E-2],"split_indices":[4,6,6,4,0,6,4,2,0,4,4,0,4,1,6,0,0,0,0,0,0,0,0,0,0,0,0,0,0,0,0],"split_type":[0,1,1,0,0,1,0,0,0,0,0,0,0,0,1,0,0,0,0,0,0,0,0,0,0,0,0,0,0,0,0],"sum_hessian":[1.3083131E3,1.6529198E2,1.1430211E3,3.9892307E1,1.25399666E2,1.1169966E3,2.6024567E1,2.1275064E1,1.861724E1,1.1670386E2,8.695807E0,1.7486852E2,9.4212805E2,2.0159061E1,5.8655057E0,1.8692148E1,2.5829177E0,1.6939575E1,1.6776665E0,6.4668775E0,1.10236984E2,4.8891015E0,3.8067055E0,9.030588E1,8.456263E1,8.033689E2,1.3875914E2,1.8532575E0,1.8305803E1,4.3313646E0,1.5341412E0],"tree_param":{"num_deleted":"0","num_feature":"7","num_nodes":"31","size_leaf_vector":"1"}},{"base_weights":[1.0348803E-2,-4.6129636E-2,1.7667959E-2,3.8617272E-2,-1.4532524E-1,-1.7758839E-2,1.4549766E-1,6.936563E-2,-1.762651E-1,-8.769297E-3,1.7258028E-3,1.6246876E-2,2.237442E-3,-1.6249316E-2,1.0111742E-2],"categories":[0,1,2,3,4,5,6,7,8,10,11,12,13,15,0,3,4,7,11,12,13,14],"categories_nodes":[4,6],"categories_segments":[0,14],"categories_sizes":[14,8],"default_left":[0,0,0,0,1,0,1,0,0,0,0,0,0,0,0],"id":73,"left_children":[1,-1,3,5,7,9,11,-1,13,-1,-1,-1,-1,-1,-1],"loss_changes":[8.917783E0,0E0,4.425607E0,6.9186954E0,7.2453055E0,6.205248E0,7.153023E0,0E0,8.261716E0,0E0,0E0,0E0,0E0,0E0,0E0],"parents":[2147483647,0,0,2,2,3,3,4,4,5,5,6,6,8,8],"right_children":[2,-1,4,6,8,10,12,-1,14,-1,-1,-1,-1,-1,-1],"split_conditions":[2E0,-4.6129636E-2,6E0,4E0,1E-45,4.7E1,1E-45,6.936563E-2,6.07E2,-8.769297E-3,1.7258028E-3,1.6246876E-2,2.237442E-3,-1.6249316E-2,1.0111742E-2],"split_indices":[4,0,1,1,6,4,6,0,4,0,0,0,0,0,0],"split_type":[0,0,0,0,1,0,1,0,0,0,0,0,0,0,0],"sum_hessian":[1.3026079E3,9.166305E0,1.2934417E3,1.146807E3,1.466346E2,7.5133484E2,3.9547214E2,2.0341039E0,1.446005E2,1.8652914E2,5.648057E2,1.4140173E2,2.5407042E2,1.0391236E2,4.068814E1],"tree_param":{"num_deleted":"0","num_feature":"7","num_nodes":"15","size_leaf_vector":"1"}},{"base_weights":[3.6109264E-3,-4.719963E-2,5.0197024E-2,-4.598583E-2,-4.0162925E-2,-1.6306855E-1,5.6312853E-3,-2.6588073E-2,-3.799034E-3,4.37192E-3,-3.6693984E-3],"categories":[],"categories_nodes":[],"categories_segments":[],"categories_sizes":[],"default_left":[0,0,0,0,0,0,0,0,0,0,0],"id":74,"left_children":[1,3,-1,-1,5,7,9,-1,-1,-1,-1],"loss_changes":[6.687267E1,7.650838E0,0E0,0E0,6.998E0,1.0796268E1,5.867515E0,0E0,0E0,0E0,0E0],"parents":[2147483647,0,0,1,1,4,4,5,5,6,6],"right_children":[2,4,-1,-1,6,8,10,-1,-1,-1,-1],"split_conditions":[1E0,2E0,5.0197024E-2,-4.598583E-2,2E0,4E0,8E0,-2.6588073E-2,-3.799034E-3,4.37192E-3,-3.6693984E-3],"split_indices":[5,4,0,0,1,0,0,0,0,0,0],"split_type":[0,0,0,0,0,0,0,0,0,0,0],"sum_hessian":[1.3137518E3,1.2511537E3,6.259806E1,8.971957E0,1.2421818E3,3.3649982E2,9.0568195E2,6.332074E1,2.7317908E2,4.4493878E2,4.6074316E2],"tree_param":{"num_deleted":"0","num_feature":"7","num_nodes":"11","size_leaf_vector":"1"}},{"base_weights":[7.4858307E-3,-4.1336242E-2,5.0124265E-2,-2.3994045E-1,-9.119056E-3,-4.5686107E-2,-2.0013711E-1,6.950583E-2,-6.7572966E-2,1.1350124E-2,-1.2500594E-2,-3.8019908E-3,9.903875E-3,-2.2135789E-2,1.3353484E-3],"categories":[0,2,3,6,7,10,12,13,15],"categories_nodes":[6],"categories_segments":[0],"categories_sizes":[9],"default_left":[0,0,0,0,0,0,1,0,0,0,0,0,0,0,0],"id":75,"left_children":[1,3,-1,5,7,-1,9,11,13,-1,-1,-1,-1,-1,-1],"loss_changes":[6.405067E1,8.040628E0,0E0,4.5213184E0,4.98018E0,0E0,3.612368E0,8.663006E0,2.1991522E1,0E0,0E0,0E0,0E0,0E0,0E0],"parents":[2147483647,0,0,1,1,3,3,4,4,6,6,7,7,8,8],"right_children":[2,4,-1,6,8,-1,10,12,14,-1,-1,-1,-1,-1,-1],"split_conditions":[1E0,8E0,5.0124265E-2,2E0,7E0,-4.5686107E-2,1E-45,4E0,1.2E1,1.1350124E-2,-1.2500594E-2,-3.8019908E-3,9.903875E-3,-2.2135789E-2,1.3353484E-3],"split_indices":[5,4,0,4,0,0,6,0,0,0,0,0,0,0,0],"split_type":[0,0,0,0,0,0,1,0,0,0,0,0,0,0,0],"sum_hessian":[1.3166604E3,1.2559906E3,6.0669785E1,1.7440654E2,1.0815841E3,8.503607E0,1.6590292E2,4.611345E2,6.204496E2,1.6974844E1,1.4892809E2,2.1648163E2,2.4465288E2,1.2387024E2,4.965793E2],"tree_param":{"num_deleted":"0","num_feature":"7","num_nodes":"15","size_leaf_vector":"1"}},{"base_weights":[-2.5627926E-2,-7.462646E-2,5.0041165E-2,-4.5522764E-2,-6.8243675E-2,8.678601E-3,-9.28114E-2,-1.6995214E-3,1.2158396E-2,-1.1315721E-2,-3.0411596E-3],"categories":[2,3,7,8,10,13,15],"categories_nodes":[4],"categories_segments":[0],"categories_sizes":[7],"default_left":[0,0,0,0,1,0,0,0,0,0,0],"id":76,"left_children":[1,3,-1,-1,5,7,9,-1,-1,-1,-1],"loss_changes":[6.519001E1,6.5351424E0,0E0,0E0,2.3221126E0,2.9924567E0,3.962408E0,0E0,0E0,0E0,0E0],"parents":[2147483647,0,0,1,1,4,4,5,5,6,6],"right_children":[2,4,-1,-1,6,8,10,-1,-1,-1,-1],"split_conditions":[1E0,2E0,5.0041165E-2,-4.5522764E-2,1E-45,2.2E1,4E0,-1.6995214E-3,1.2158396E-2,-1.1315721E-2,-3.0411596E-3],"split_indices":[5,4,0,0,6,